20 300
Chen -0.0253106 0.014154 -0.0614448 0.0076598 0.0368003 -0.0709363 0.0564493 -0.1133982 0.0606122 0.0621109 -0.014487 0.0314717 0.0472909 0.0143205 -0.0519534 -0.0672729 -0.0043294 0.0083259 0.053785 -0.0059946 0.0536185 0.0632765 -0.019649 0.0954143 0.0401306 0.0218137 0.0188164 0.072768 0.0344691 -0.0399641 -0.0349686 0.009658 -0.0334699 0.1691814 -0.0884206 -0.0139874 -0.0098245 -0.1222236 -0.0251441 0.0023312 -0.0001665 -0.0163187 -0.0279749 -0.0424619 0.0029973 0.0614448 0.0106571 -0.0074933 -0.0549507 -0.0259767 0.0031638 -0.0208146 -0.1060714 0.1032406 0.0016652 -0.0877545 0.0181504 -0.0068272 -0.0396311 -0.0339695 0.0785961 -0.0278084 -0.0069937 0.0251441 0.0329704 0.0313052 0.0912514 -0.0616113 -0.0081593 0.0319713 -0.0797617 0.0081593 0.0741001 -0.0138209 -0.0146535 -0.0274753 0.0323043 -0.0329704 0.0807608 -0.0449596 -0.0183169 0.053119 -0.0944152 -0.0278084 -0.0211477 -0.0604457 -0.0006661 0.1285512 -0.0084924 0.0173178 -0.019316 -0.0436275 -0.0965799 -0.1127321 -0.0123223 0.1457025 0.0624439 -0.0024978 0.0442936 0.0264762 0.0166517 -0.0607788 0.018983 0.0411297 -0.0732675 -0.1954911 -0.0552837 -0.1037402 0.004829 -0.0850903 0.0123223 -0.0654412 0.0594466 -0.0636096 0.0188164 -0.0054951 -0.0571154 0.0622774 0.150032 0.0161522 -0.0101575 0.0173178 0.019649 0.0770974 -0.0309722 0.0416293 0.0183169 -0.0529525 -0.0857563 0.0965799 0.0671064 0.0346356 0.0847572 -0.0576149 -0.0256436 0.0089919 0.0790956 0.0224798 -0.0078263 0.0279749 0.1350454 0.0261432 0.0199821 0.0253106 -0.0336365 -0.063443 -0.0276418 0.0484565 -0.0178173 -0.0376329 -0.0264762 -0.0726015 -0.0521199 -0.0013321 0.0564493 0.0376329 0.0106571 0.0151531 0.0208146 0.0159856 0.0134879 0.0251441 0.0261432 -0.0124888 -0.024145 0.0279749 -0.0039964 -0.1045728 -0.0492891 -0.072768 -0.0049955 0.0224798 -0.038965 0.0992442 -0.0138209 0.0454592 0.0014987 0.0810939 -0.0687716 -0.0029973 -0.0026643 0.0807608 0.097246 -0.0641091 0.0049955 0.0069937 0.0218137 0.1984884 -0.0184834 0.0328039 -0.0817599 0.0278084 -0.1278852 -0.0336365 -0.0574484 0.0504547 0.0944152 0.0637761 0.0401306 0.0066607 -0.0805943 0.0975791 0.0288075 0.0349686 -0.0436275 -0.0667734 -0.004829 0.0629435 0.0609453 -0.1029076 0.1137312 -0.0028308 0.0233124 -0.0139874 0.0696042 -0.0449596 -0.0397976 0.0291405 -0.0324708 0.0387985 0.0049955 -0.0246445 -0.0136544 0.0995773 0.0755988 0.1227231 0.0004996 0.087588 -0.0402972 0.0239785 -0.0842577 -0.1428717 0.0014987 -0.0301396 0.0106571 0.0276418 0.01482 -0.087255 0.0802613 -0.0304726 0.0431279 -0.0471244 0.0209812 0.0865889 0.1187267 0.0677725 -0.023812 -0.0069937 0.019316 -0.0108236 0.0447931 0.0601127 -0.0224798 0.0506212 0.0502882 -0.0412963 0.024145 0.0407967 -0.0046625 0.0471244 -0.0719354 0.0810939 0.0269758 -0.0143205 0.053785 0.0356347 -0.0349686 0.0358012 -0.0008326 0.0001665 -0.0198155 0.1225566 -0.1260535 0.0880876 0.067606 -0.0566158 0.0308057 0.0023312 0.0321378 0.0471244 -0.1525297 -0.0507877 -0.0103241 0.0271423 0.0209812 -0.053785 -0.0954143 -0.0336365 -0.053119 -0.043794 -0.0526194 -0.039298 0.0206481 0.0114897 0.0014987 -0.0034969 -0.0514538 -0.0121558 0.0199821 0.0377994
Vidal -0.0400268 0.0328025 -0.0037098 0.0417841 0.0478369 0.0968454 -0.0443224 -0.070291 0.0111294 0.0269449 0.0041003 0.0322167 0.0044908 -0.0646287 -0.0320215 0.0140582 -0.0097626 -0.0663859 0.0566233 0.0230398 -0.0382695 -0.0234303 -0.0203063 0.072634 -0.015425 -0.10817 0.0167917 0.0068338 0.0499847 0.0693147 -0.0874732 -0.0320215 -0.0281164 0.1419488 -0.0499847 0.0431509 0.0730245 0.0486179 -0.0191348 0.0435414 -0.0652144 0.0134724 0.0454939 0.0220636 0.0058576 0.0205015 -0.0326072 0.0943071 -0.0714625 -0.0398316 0.0437366 0.0546708 0.0044908 0.0199158 0.0197205 -0.0740008 -0.0511562 0.0456891 -0.05018 0.0042956 -0.0767343 0.0700957 -0.032412 0.0277259 0.1403867 -0.0566233 0.072634 -0.0408078 0.0173775 -0.0466654 0.0499847 -0.0142535 0.0843492 0.0255781 0.0042956 -0.05018 0.0247971 -0.054866 -0.0464702 -0.0476417 -0.0216731 0.0402221 -0.0798584 0.0492037 -0.0222588 -0.0470559 0.0003905 0.0689242 -0.0413936 -0.0931356 -0.0085911 -0.0656049 -0.0851302 -0.0728293 0.0304594 0.2118493 -0.020111 0.0091769 0.0105436 0.0615046 -0.0019525 0.0470559 -0.0656049 0.0380743 -0.0505705 -0.227079 0.0630666 0.0456891 -0.0140582 0.0271401 0.0507657 -0.0126914 0.0427604 -0.0337787 -0.0203063 0.0568186 0.0894258 -0.0005858 0.1200805 0.0538898 0.0292879 -0.103484 -0.0164012 0.0181585 0.0087864 -0.0919641 0.0997742 0.0173775 -0.0003905 0.0859112 0.016987 -0.0082006 0.0759533 -0.1198852 -0.0991884 0.0708768 0.0095674 0.0769296 0.0794679 0.0396363 0.0044908 -0.0206968 0.1171517 -0.0478369 -0.0866922 -0.0119104 -0.0611141 0.0345597 -0.0384648 -0.0206968 0.0568186 -0.032412 0.0558423 -0.0113247 0.0925498 0.0316309 0.0755628 0.037098 0.0480322 0.0558423 -0.0148392 -0.0462749 -0.0394411 -0.0495942 -0.054866 0.0439319 0.037879 -0.0082006 0.0677527 -0.0173775 0.0472512 -0.0083959 0.0624809 -0.0732198 0.0003905 0.017768 0.0107389 0.0384648 -0.0199158 -0.0267496 0.03866 0.0829824 0.0392458 0.0183538 0.0382695 0.052523 0.0066386 0.1370674 0.0495942 0.0222588 0.0661907 0.0041003 -0.0572091 0.0271401 -0.0064433 -0.0064433 0.0058576 -0.0195253 0.0261639 0.0603331 -0.0581853 0.1325766 0.0322167 0.0659954 0.0359265 -0.0820062 0.0343645 0.020892 -0.0667764 -0.0659954 0.1179327 0.033193 0.0134724 -0.0132772 0.0497895 -0.0357313 -0.0458844 -0.0290927 -0.0411983 -0.0310452 -0.0585758 0.0148392 0.0281164 0.0261639 0.1122703 0.0076149 0.0406126 0.1192994 -0.0572091 0.0784916 0.0554518 -0.1407772 -0.0404173 -0.0591616 -0.0050766 -0.0743913 -0.0476417 -0.0562328 0.0640429 -0.0093721 0.0892305 -0.0544755 0.0488132 -0.0062481 0.1040697 -0.0066386 -0.0210873 -0.0431509 0.0097626 0.0080054 0.0300689 -0.0267496 -0.0527182 0.0167917 -0.0128867 0.0152297 0.0396363 -0.0093721 0.0757581 0.020892 -0.0003905 0.01933 0.0164012 -0.01933 0.0493989 0.0009763 -0.0156202 -0.0056623 0.0035145 -0.0123009 -0.0130819 0.1226187 -0.1312099 0.0913783 0.0454939 -0.143706 -0.0507657 0.0495942 0.053304 -0.1396057 -0.1179327 0.0634571 0.0408078 -0.105827 0.0300689 -0.0372933 0.0308499 0.0158155 -0.0005858 -0.0130819 -0.036317 0.0730245 0.056428 0.0607236 -0.0505705 -0.0091769 -0.0398316 0.0117152 0.0777106 -0.0591616
aziz -0.0583915 -0.0385935 -0.0320777 0.0005012 -0.0010024 -0.0944789 0.0649073 0.050372 0.0102749 -0.0310753 0.0463623 0.0576396 0.012781 -0.0330801 0.0872113 -0.0418514 0.0774376 -0.0208004 0.0446081 0.0731773 0.0248101 0.0919728 0.0278174 -0.0180437 0.0343332 -0.0187955 -0.0162895 -0.0423526 0.0077688 -0.0867101 0.0764352 -0.0857077 0.0744303 0.1097659 -0.0328295 -0.00827 -0.001253 0.0716736 0.0047615 0.0521263 -0.0060146 -0.0132822 -0.0052628 0.0526275 0.0523769 0.0922234 -0.0167907 -0.0335814 0.071423 0.0060146 0.0245595 -0.1060068 0.001253 -0.0305741 0.0749315 -0.015287 -0.0709218 0.0062652 0.0566372 -0.0187955 -0.0238077 0.0165401 0.0819485 -0.0040097 -0.0340826 0.0832016 0.0085206 0.0243089 0.00827 -0.1496125 0.064406 -0.1210433 0.0586421 -0.0613988 0.0318271 0.047866 -0.0538805 0.0090219 -0.077187 -0.0345838 -0.0107761 -0.0486178 -0.0443575 -0.0964838 -0.022304 -0.0192968 -0.047866 0.1225469 -0.0774376 0.0671627 -0.0015036 -0.012781 -0.0030073 -0.0263138 0.0799437 0.1182866 0.0666615 -0.0092725 0.0308247 -0.1215445 0.0145352 0.0167907 0.0410996 -0.0243089 -0.0674133 -0.1270578 -0.1230481 -0.0080194 -0.0451093 0.0669121 -0.0423526 0.0934765 -0.0065158 0.0200486 0.0107761 0.0132822 -0.0022555 -0.028068 0.1413424 0.0651579 0.0025061 0.021051 0.056136 -0.0308247 0.0571384 0.0786907 0.042102 0.012781 0.0060146 -0.0769364 0.0017543 -0.0278174 0.0135328 0.0726761 -0.047866 0.0182943 -0.0035085 0.0849558 -0.0087713 -0.0358368 0.007017 -0.0461117 0.0135328 0.0426032 0.0097737 0.0390947 -0.1097659 -0.0147858 -0.0145352 0.0889655 -0.0553842 -0.0666615 0.0481166 -0.0162895 -0.0175425 -0.141593 0.0027567 0.0403478 0.0786907 0.0501214 -0.0060146 -0.0498708 -0.0075182 0.0248101 -0.0847052 -0.0323283 0.0072676 0.056136 -0.0546324 0.0984886 -0.0526275 0.0238077 0.0180437 0.0218028 -0.0461117 0.0974862 -0.0245595 0.042102 0.0260631 -0.0075182 0.0380923 0.0157883 -0.0832016 0.0037591 -0.0523769 -0.0919728 0.0007518 0.2380768 0.0273162 -0.028068 0.0546324 0.0395959 0.0649073 0.1130238 -0.0621506 0.0593939 0.049119 -0.0022555 0.0157883 -0.0270656 0.0162895 -0.1200408 0.026815 -0.0122798 -0.040849 -0.029321 0.0576396 -0.0135328 -0.0130316 -0.155627 -0.0062652 -0.0967344 0.0353356 0.0238077 0.0894668 0.0629024 -0.0603963 -0.0040097 0.0528781 -0.0258125 -0.0230559 0.0283186 -0.0461117 0.0824498 0.0583915 0.0568878 0.0616494 0.2345683 0.0225546 0.0719243 0.0062652 -0.0303235 -0.0167907 0.0486178 0.1528704 -0.0681651 0.0333308 -0.0295716 0.0290704 -0.0576396 -0.0145352 0.0097737 0.0030073 -0.0428538 0.0869607 0.0240583 0.0962332 -0.0167907 0.0323283 0.043355 0.0273162 -0.0518757 0.0045109 0.0030073 -0.0002506 -0.0040097 0.0235571 -0.0097737 -0.0032579 0.0115279 -0.112272 -0.0260631 0.1032502 0.0596445 0.0248101 0.0080194 0.0102749 0.0832016 0.0483672 0.0097737 0.0065158 0.0215522 0.1072599 0.014034 0.0010024 -0.0030073 0.0085206 -0.0295716 -0.0170413 -0.0521263 -0.0300729 -0.0816979 0.091221 -0.0586421 -0.0659097 0.0461117 0.0177931 -0.0060146 -0.0215522 0.0027567 -0.0390947 -0.0957319 0.0556348 0.0130316 0.0328295 -0.0192968 0.111019 -0.0007518 0.0112773 -0.0303235
andreea cotoranu -0.02739786194712159 -0.00449965010340088 -0.03881549617563405 0.03523606237540358 -0.08962717798653748 -0.03757455330767024 -0.033874844188978424 -0.08417303632466513 0.041804636930140776 0.023945491481355274 0.02301274382215922 0.03825358582271708 -0.026862475398244788 -0.0015895921728382614 -0.014877566613418365 0.007507403093264965 0.01671731517085579 -0.017786719025637904 0.05448627803564495 0.029283041067563135 0.03837570771332251 0.00015412799286104446 -0.0020589846531464057 0.07861774324071397 0.07283894063092725 0.007486707395991171 0.0341709612250731 0.03798442174461588 -0.0035370798042521252 -0.03439602807922191 -0.03932061352180023 -0.015182829304996993 0.0018158794060874651 0.05590815709225761 0.058226271854414896 -0.041850472287928785 -0.023638316131015025 -0.019883674208732306 0.01682198640074227 -0.007414051366587764 0.014079964275087524 0.016554845386155762 -0.05000295790893099 0.027594565576405487 0.043750597555769766 -0.01000660368670443 0.049448109149055876 0.05735375365124238 -0.024667658641847966 0.0020560151936222827 0.05515270470461668 0.023631487163257643 0.0005476761975812114 -0.0023900114005323833 -0.03416520684678667 -0.03649037712870616 -0.048274499383069124 -0.020647453211230928 -0.11430576687622057 -0.001531521269751906 0.0110623337901839 0.0687107575024032 0.0016670493677664272 -0.010589842824363437 0.08812674293080124 0.07708842102484526 -0.11711778325435761 -0.06044673342519352 -0.010785256304409938 -0.03401101162748306 -0.028885360360263086 0.01665187402468482 -0.018174686614120167 0.05250106729602598 0.05183383667393836 -0.03262733603896166 0.017883055503436593 -0.18959144237923806 -0.02857508277113882 0.023398332954482813 0.06001861918059702 -0.0018291518306545586 -0.011069941586496802 0.03558918843979893 -0.043218383297031336 -0.054432005603776056 -0.0004667225530210612 -0.007131990826901998 0.02540457038752901 0.03300334430142322 -0.011565045527788326 0.029535503186449943 -0.08055291136596525 -0.0744533210312138 0.03943215413570328 0.17544791413699495 0.042025963285574654 -0.07410270761752334 0.06440023785279746 0.027591106022670592 0.08944010839368727 -0.02853356787919867 0.00916777893329735 -0.007904978165569948 -0.1296047589619692 -0.16279225729072327 -0.035377906463020435 -0.01552633988825488 0.02481551569098148 -0.022793677872747366 0.03244188606910947 0.016891230500829073 0.06121689004274709 0.005840583472035544 0.08249431446259023 0.009891306514693748 -0.09523824653866672 -0.06508603357623895 0.05327384393125219 0.03617987529419914 0.017421157084515252 -0.0048397502493351795 0.008567498848900684 0.016505499858071395 0.07261735701242521 -0.05379788750901449 0.046020579448123246 -0.07510571017210783 -0.06900288033694504 0.21815049720815546 -0.028084414802318977 -0.027629303978218125 0.03471586890753828 -0.03976792231663155 -0.04056503853976588 -0.027881159383589166 0.02462296650676479 0.05809463856693331 0.013477769059523975 0.015092450926203831 0.05192880434544209 0.008926886559292689 0.06472319276781766 0.05114175519542683 -0.07166595552146052 -0.1158921572691444 -0.04199931831777766 -0.006988338117935305 0.021337347134443227 -0.01570171540260574 0.031216969187135426 0.03959529974948494 -0.04879032406824191 -0.020708848184377827 -0.03485963291682523 0.03353694552322307 0.0036061750518736283 -0.004645506731614138 0.05534554376708134 -0.10293146493148728 -0.042215751016471 0.035012417538957806 -0.09829332534940315 0.017209979585030438 -0.06557344257516629 -0.10957111502027868 -0.04889216728470706 -0.012741843469920421 0.04903599388662123 -0.023210392975868185 -0.016377858661360562 -0.06771378957637306 -0.07307980031081528 -0.0008206639223158706 0.05946294689259166 -0.0383612886398565 -0.0010222799463920876 0.049251185786906675 0.012950363036596873 0.08098066034834493 -0.02098935493293073 -0.042399692119639856 0.028309426807698726 -0.018340454344037815 -0.038655082179185354 0.0876532739856918 -0.0568834456568428 0.14551431448337457 -0.0477316464638522 0.016324275453892787 0.09032151938323814 0.04256841231701427 -0.11802362998717779 0.008487224071629842 -0.06596252378614725 0.006326380037373751 0.014725584756415668 0.04007811285883397 0.037430107823570244 0.026396190454445585 -0.03956465616675177 0.18823170816201776 -0.06548704356545398 -0.01945985594613087 0.07063829883757539 0.018192014306100575 0.0046289215948762535 0.006961322689562115 0.06454664520120282 -0.03040627335975481 0.1089562287859156 0.04094572517099412 0.0312061845562017 -0.1032511601544448 0.029281958426099836 -0.15286307059119944 0.034397915202751636 -0.009409864207564338 -0.02633740021079587 -0.008155862364821362 0.05516451419299683 -0.013475010016964028 -0.028632073351006475 0.08240856669317727 0.03121067554671169 -0.0013351074160524615 0.08000403184233265 0.11069933342775651 -0.02887895950429246 -0.0571428661397301 0.036292551649885554 -0.17582288283841335 -0.0388841346996731 0.02423221848422637 0.028051593194372334 -0.03869020896178655 0.06779606828008486 -0.11051755869306384 0.009220246792339142 0.04115942279571093 0.13984546891093258 0.009334224740281524 0.04747091368871942 -0.09079847262761079 0.045758079851128904 0.012055619446596224 -0.09741364041965814 -0.013135846329875883 0.029583945638519415 0.040232060543614515 0.07054951262252955 -0.01167978663093959 -0.0055648430515744945 0.09391582090365785 0.13153785047429925 0.007758990438340001 -0.08739736239774407 0.048082430230935135 0.10787197313172742 0.06793744896068668 0.035421417270948385 0.01471583438666057 -0.05011962089837657 -0.0441216812102615 0.049426875627397594 -0.009815574924208165 0.008641089240887422 0.00950971200645107 -0.00046747317864188713 -0.048153181265109396 -0.03161561323522706 0.15850261328609389 -0.14174331272582927 0.030738334091472638 0.059896994893268586 -0.059636430370670575 -0.018964148720477445 0.038028131280025 0.017905094179109658 0.06839813473050532 -0.0033647917967618984 -0.01450388245171182 0.002939726186704454 -0.07155114192374272 0.05919732988359691 0.003516794868930331 0.018195432434380595 -0.006055424830337485 -0.0008774169688632301 -0.08050049639122923 0.0024759916694047338 -0.016208851494646365 0.010499767623871932 -0.06925982197293942 -0.09387069331894429 0.013448946268799786 0.03130249784139045 0.08441013235987556 0.025083373926316155 0.036182544097431955
Kim -0.0118994 0.0076156 -0.0891266 -0.0099955 0.039744 0.000357 -0.059735 -0.1161382 -0.0167782 0.0648518 -0.0368882 0.0242748 0.0710395 0.0578311 -0.0561652 -0.0540233 -0.0216569 0.0471217 -0.0322474 0.000833 0.0164212 -0.0315334 -0.0708015 0.1103075 0.0577121 0.0063067 0.0318904 0.0044028 0.059735 -0.0354602 0.0431949 -0.0686596 0.0017849 0.1558823 -0.1336304 0.0105905 0.020943 -0.0279636 0.000119 0.0247508 -0.0470027 -0.0274876 -0.0362932 -0.060211 0.0567602 0.0615199 0.0693736 -0.0668747 -0.000595 -0.0230849 0.0434328 -0.0828199 -0.0215379 0.0190391 0.0 -0.0249888 -0.0416479 -0.0122564 -0.0680646 0.0028559 0.0460507 -0.0094005 -0.0454557 0.0222519 0.0105905 -0.0010709 0.0414099 -0.0565222 -0.0455747 0.0622339 -0.0123754 -0.0247508 0.0763942 -0.0508105 -0.0524764 0.0109475 -0.000476 -0.0724674 0.0234418 -0.0232038 -0.0028559 0.0383161 -0.0533094 -0.0265357 -0.0186821 -0.0704445 -0.0334373 0.1483856 0.0733004 0.0830579 0.0311765 -0.0287966 -0.1119734 -0.1433879 -0.0033318 0.1120924 0.0442658 0.0051167 0.0168972 0.0547373 0.0346273 -0.0678266 0.0635428 -0.0473597 -0.0985271 -0.181347 0.0381971 0.0780601 0.0448608 -0.099836 -0.0052357 -0.0691356 0.0615199 -0.0042838 -0.0096385 -0.0659227 -0.0524764 0.0183251 0.1280376 0.0227279 -0.0460507 0.1075707 0.0944813 0.0321284 -0.0666367 -0.0239178 -0.0321284 0.0042838 0.000357 0.0721104 0.0844858 0.0188011 -0.0383161 -0.0778221 -0.0129704 0.0756802 -0.0361742 0.0315334 -0.0546183 0.0029749 0.0539043 0.060449 -0.0371262 0.0516434 -0.0218949 0.0359362 0.0152312 -0.0022609 0.0224899 -0.0310575 0.0097575 -0.1674247 -0.1040008 0.0027369 -0.0371262 0.0145173 -0.0076156 0.0088056 0.0028559 0.0132083 0.0028559 0.0057117 0.0096385 -0.0339133 -0.0775842 0.040458 -0.0310575 0.0616389 -0.0885316 0.0360552 0.0079726 0.0326044 0.0118994 -0.0918634 0.0163022 0.0533094 0.040696 0.0034508 -0.0241558 0.059735 -0.0113044 0.0680646 -0.0252267 -0.0660417 0.0665177 -0.0515244 -0.0167782 0.1872967 0.0242748 0.080083 0.0585451 0.0723484 -0.0904355 -0.059973 -0.0879366 0.0082106 0.0510485 0.0130894 0.0459317 0.0414099 -0.1063807 0.0821059 0.0299865 0.041053 -0.0221329 -0.039863 -0.019158 -0.019872 0.0270117 -0.1054288 0.0631859 0.0035698 -0.0293915 0.0644948 0.0691356 -0.1329164 -0.0335563 -0.0391491 -0.060449 0.0392681 -0.0154692 -0.0232038 -0.0665177 0.0823439 0.0976942 0.0473597 0.0082106 0.080559 0.0258217 0.0566412 -0.0474786 -0.1896766 -0.0085676 -0.0164212 -0.0109475 0.0372452 0.0214189 -0.0340323 0.0540233 0.0111854 0.0124944 0.0734194 0.039744 0.0235608 0.1178042 0.039744 -0.0548563 -0.0517624 0.0742523 0.000714 0.0279636 -0.0014279 -0.0433139 0.0785361 0.0663987 -0.0237988 0.0725864 0.0 -0.0334373 -0.0304625 -0.0834149 0.019277 0.0504535 0.0226089 0.080083 0.0232038 -0.0740143 0.0468837 -0.0066637 -0.0212999 -0.0744903 0.1222069 -0.0741333 0.0788931 0.0853188 -0.081273 -0.0441468 -0.0284396 -0.0738953 0.0665177 -0.0969802 0.0360552 0.0978131 0.0767512 -0.0262977 -0.0392681 -0.0041648 0.0340323 -0.040696 0.0189201 0.020229 -0.019515 0.0189201 -0.0224899 -0.0540233 0.0277256 0.0561652 -0.0252267 -0.0356982 0.0437898
footballer 0.0276033 -0.0428578 0.0098064 -0.0181601 0.0221553 -0.0058112 -0.046853 -0.1002436 0.048669 -0.0087168 0.0101696 0.0769987 -0.0664658 -0.0337777 0.0857155 0.117314 0.0726403 -0.0384993 -0.0243345 0.0599282 0.0766355 -0.0835363 -0.0352305 0.0958851 0.0014528 -0.0693715 0.0435842 -0.0123488 -0.0185233 -0.0177969 0.0355937 0.0243345 0.0439474 -0.0094432 -0.0007264 -0.003632 0.0312353 -0.0199761 0.0330513 0.0363201 0.0508482 -0.1038756 0.007264 0.0119856 0.0439474 0.0722771 0.0123488 -0.0112592 0.007264 0.055933 0.0308721 -0.0348673 0.0388625 0.0087168 0.0232449 -0.0759091 0.012712 -0.0196129 -0.0937059 -0.0871683 -0.0181601 0.0119856 0.0755459 0.052301 0.061381 0.0170705 0.0246977 -0.0239713 0.0454002 -0.0882579 0.0268769 -0.046853 0.0439474 -0.0058112 0.0177969 0.0377729 0.010896 -0.0228817 -0.0395889 -0.0199761 0.0584754 0.0897107 -0.0795411 0.11005 0.0083536 -0.0697347 -0.0777251 0.0700979 -0.0228817 -0.0290561 -0.007264 0.0878947 -0.0947955 -0.0058112 0.0345041 0.1539974 -0.0995172 0.007264 0.0955219 -0.050485 0.0174337 0.045037 -0.0145281 0.0007264 -0.0704611 -0.0733667 -0.0323249 0.11005 0.0552066 0.0381361 -0.0998804 0.0399521 0.0457634 -0.0221553 0.1093236 0.0101696 0.0388625 0.0370465 0.007264 0.0014528 0.0181601 -0.0435842 0.0185233 -0.0515746 0.0897107 -0.0624706 -0.0348673 -0.0639234 -0.0562962 0.0417682 -0.0715507 0.0246977 -0.0374097 -0.104602 -0.1311157 0.0624706 0.0621074 0.0824467 0.0439474 -0.0312353 0.0152545 0.063197 0.0395889 0.0123488 -0.0653762 0.0759091 -0.0196129 -0.0098064 -0.0192497 -0.0199761 0.0410417 0.10097 -0.0243345 -0.0279665 -0.1035124 -0.0639234 0.0457634 0.0657394 0.0769987 -0.0272401 -0.0268769 0.0265137 -0.0566594 0.0199761 -0.0094432 -0.0962483 0.0944323 0.1383797 -0.0236081 0.0050848 -0.0083536 0.0156177 -0.0116224 0.061381 0.0857155 0.0497586 -0.0548434 0.0319617 0.0639234 -0.1311157 0.0628338 -0.0254241 0.0032688 -0.0744563 0.0163441 -0.0570226 0.0286929 0.1289365 0.0341409 0.010896 0.0363201 0.1278469 0.010896 -0.0163441 -0.0050848 -0.0170705 -0.0163441 -0.0570226 -0.0083536 0.0286929 -0.2059351 0.043221 -0.0599282 -0.0305089 -0.0846259 0.0003632 -0.0399521 -0.0236081 -0.010896 -0.0624706 0.1380165 -0.0014528 -0.0123488 -0.0043584 -0.0548434 -0.0406785 -0.0464898 -0.0014528 0.0188865 0.0806307 -0.0058112 0.066829 -0.0250609 0.0911635 -0.0188865 -0.0210657 0.0010896 0.0966115 -0.0058112 0.0047216 0.0061744 -0.0697347 -0.0330513 -0.0207025 -0.0675554 -0.0050848 -0.1220356 -0.0167073 -0.0083536 0.0584754 0.0217921 0.0243345 0.0177969 0.0181601 0.0392257 -0.0628338 -0.0330513 0.0014528 -0.050485 -0.0621074 0.0831731 -0.0159809 0.0345041 -0.0116224 0.0642866 0.0007264 -0.0464898 0.0664658 0.0708243 0.0334145 -0.0871683 -0.052301 0.0711875 0.0628338 0.0050848 -0.0642866 -0.0937059 0.0210657 0.1085972 -0.0722771 -0.0167073 0.0744563 -0.1075076 0.0261505 -0.0192497 -0.0933427 0.1285733 0.0003632 0.0708243 -0.065013 0.0748195 0.0679186 -0.0428578 -0.1213092 0.0192497 -0.0878947 0.0134384 -0.0922531 0.0170705 -0.0301457 0.0908003 -0.0657394 -0.0210657 0.0207025 -0.0290561 -0.0177969 -0.0254241 0.0370465 0.1060548 -0.0726403
Suarez 0.0934963 0.0079384 -0.0498353 0.0588762 0.0297689 0.0401328 -0.0425584 -0.0692401 0.0119075 -0.0048512 0.0194049 -0.000882 0.0249176 -0.1018756 0.010364 -0.04322 -0.0326355 0.0079384 0.0635069 0.0425584 -0.0560095 -0.054466 -0.0458661 0.0782811 -0.0251381 -0.1020961 0.0485122 -0.0136716 0.1012141 -0.0249176 -0.0628454 -0.0635069 0.0101435 0.1499468 -0.0396918 0.0156562 0.054025 -0.0491737 -0.0260202 0.0443225 -0.0194049 0.0152152 0.1424495 0.0546865 0.1371572 0.0132306 0.0249176 0.0246971 -0.0306509 -0.0566711 0.0205074 0.0196254 0.0729888 0.0310919 -0.0313124 -0.0147742 0.0017641 -0.0535839 -0.0840143 -0.0297689 -0.0979065 -0.0156562 -0.0385893 -0.0011026 0.0427789 -0.0090409 0.0396918 -0.0489532 0.0853374 -0.0454251 0.0485122 -0.0167588 0.0579941 0.0154357 0.0743119 -0.1567826 0.0458661 -0.0593172 0.0425584 -0.0465276 -0.0022051 0.0388098 -0.0679171 0.153475 0.0249176 -0.0831323 0.009923 0.0734298 0.044984 -0.0566711 0.0282253 -0.0476302 -0.0780606 -0.0515993 -0.0302099 0.1664851 0.0205074 -0.1045218 -0.0275638 -0.1459776 0.0119075 0.0895271 -0.0392508 -0.0560095 -0.0418969 -0.1792747 -0.0610813 -0.0061743 -0.0187434 0.0809272 0.0357226 0.0059538 0.0154357 -0.0189639 0.0374867 0.0061743 -0.032415 0.0423379 0.0906296 0.054025 -0.0187434 -0.0643889 -0.0427789 0.0317534 -0.0187434 0.000441 0.0712247 -0.0410149 -0.0438815 0.0586557 0.0028666 0.011246 -0.0467481 -0.0251381 -0.0513788 0.0533634 -0.033297 0.0522609 0.0824708 -0.0908501 -0.0205074 0.0030871 0.0478507 -0.0235946 -0.0434405 -0.0233741 -0.0282253 0.0189639 0.0213895 -0.0101435 -0.009923 -0.0535839 -0.0178613 -0.0068358 0.0562301 0.044543 0.0024256 -0.0143332 0.0306509 0.0522609 0.0601992 0.011246 -0.0273432 -0.0676966 0.0564506 -0.0176408 0.0297689 -0.022933 0.0222715 0.0059538 0.0072768 0.0160972 -0.0158767 -0.0171998 0.0257997 0.0163177 -0.0423379 -0.0427789 0.0866604 -0.1208395 0.031974 0.0200664 0.022933 -0.0257997 0.0194049 -0.0509378 0.0707837 0.1479622 0.0169793 -0.0030871 0.1117986 0.0438815 -0.0478507 -0.0061743 -0.0180818 -0.0077179 -0.0396918 0.0467481 0.0202869 -0.0789426 -0.0862194 0.1658235 0.0130101 0.0105845 -0.1060653 -0.076517 0.0130101 -0.1598698 -0.0416764 -0.1005526 0.0643889 0.0070563 -0.0134511 -0.0608608 0.1162088 -0.0575531 -0.0500558 -0.0114665 -0.0429995 0.0264612 -0.032415 0.0048512 -0.1173113 0.1062858 0.0939373 -0.0317534 -0.0282253 0.0412354 -0.0474097 0.0496148 -0.0277843 -0.0899681 -0.0630659 -0.0077179 0.0218305 -0.0718863 -0.0926142 -0.0310919 0.0485122 -0.0260202 0.0105845 -0.0696812 0.0299894 -0.054025 0.1592082 0.1073884 -0.0685786 -0.0178613 -0.0174203 0.0222715 0.0456456 -0.0469686 0.0456456 0.0035282 0.0443225 -0.0359431 0.0207279 0.0374867 0.0209485 0.0094819 -0.0059538 0.0522609 0.010805 -0.0538044 0.0141126 0.0052922 0.0101435 -0.0026461 -0.0302099 -0.0288868 0.0460866 0.1040807 -0.1495058 0.0762965 0.0297689 -0.0597582 -0.021169 -0.0176408 0.0407944 -0.0046307 -0.0820297 0.1347316 -0.0502763 -0.1047423 -0.0094819 -0.0299894 0.0429995 -0.0057333 0.0648299 0.0297689 -0.0125691 0.0335175 0.0202869 -0.0359431 0.0659325 0.0421174 0.0057333 0.0189639 0.0357226 0.0030871
tom 0.0332567 0.0533464 0.0648845 0.0661061 0.0054297 -0.0574187 0.0279628 -0.1385921 -0.0473738 0.0255194 -0.0591833 0.0806305 0.0469666 -0.027827 0.0621696 -0.0035293 0.0753366 -0.0025791 0.0433016 -0.0476453 0.0142529 0.0620339 -0.0166962 0.0469666 0.1303119 -0.0889107 0.012081 -0.0035293 -0.039908 0.0306776 -0.0082802 -0.0620339 0.047781 0.0291844 -0.076151 -0.0371932 0.0424871 0.06407 -0.0317635 0.0111308 0.0161532 -0.1675051 -0.0215829 -0.044116 0.0271483 0.0705856 -0.0143886 0.0351571 0.0200898 0.0494099 0.0161532 -0.0108593 0.0879605 -0.0403152 -0.0473738 -0.027827 0.019411 0.0093662 -0.0491384 0.0437088 -0.0522605 -0.0752008 0.0408582 -0.036786 0.0035293 0.0602693 -0.0118095 -0.0118095 -0.0150673 -0.0076015 0.0137099 -0.0540251 -0.0032578 -0.0180536 -0.0686852 0.0605407 -0.0466951 -0.0694997 -0.0187323 0.0004072 -0.0452019 -0.0857887 0.0024433 0.0916256 -0.024705 -0.0158818 0.0093662 0.0959693 -0.0707214 0.036786 -0.0355643 -0.0419441 -0.0775084 -0.0095019 0.1611252 0.0775084 0.0612194 -0.0061084 -0.0958335 0.0076015 0.0860601 -0.0866031 0.0382791 -0.0145243 -0.0466951 -0.1642473 0.0050224 -0.0859244 -0.0366502 0.0559255 -0.0747936 -0.0088232 0.0137099 0.0336639 -0.0526677 0.032035 -0.0253837 0.000543 0.0331209 0.0423514 0.0294559 0.181215 0.0291844 -0.0259266 0.0870103 0.0610837 0.0308133 -0.0337996 -0.0468308 0.0266053 0.0093662 -0.0114023 -0.0218544 0.000543 -0.0591833 -0.0807662 0.0058369 0.0484597 -0.0445232 0.0067871 -0.0629841 0.0166962 -0.0537537 -0.0198183 -0.0623054 -0.0428943 0.0507673 -0.0054297 -0.0333924 -0.0537537 -0.0233475 0.0382791 0.044116 -0.0449305 0.0563327 -0.0948834 0.0548396 -0.0229403 0.0547038 -0.0282342 0.0153388 0.052532 -0.0165605 -0.004208 -0.0454734 -0.0020361 0.0471023 0.1835226 -0.0642058 0.0185966 0.0086875 -0.0101806 0.0355643 0.000543 -0.0745221 0.0773727 0.0044795 0.0021719 0.0528035 -0.0351571 -0.0048867 -0.0438445 -0.0295917 -0.0891822 -0.0058369 -0.0553826 -0.0437088 0.1620754 -0.052532 0.0210399 -0.0461521 -0.0433016 -0.0978697 0.0138456 0.0555183 0.0333924 -0.1005845 -0.0069228 0.0020361 0.096105 -0.1756496 -0.0061084 0.0306776 0.0232118 0.0745221 -0.0062441 0.012624 0.0491384 0.0272841 -0.0533464 0.1611252 -0.00733 0.0156103 -0.0762868 0.0067871 0.012081 0.0563327 0.0124882 0.0306776 -0.0245692 0.1242035 0.0537537 -0.0192753 0.1076431 0.0177821 -0.036786 0.004208 0.1109009 -0.0909468 0.0542966 -0.0509031 -0.0753366 0.0131669 0.0511746 0.0460164 -0.0671921 0.0397723 -0.0643415 -0.0836168 -0.0111308 0.0999058 -0.0412654 0.0154745 -0.0871461 -0.0173749 0.0529392 -0.008416 0.067735 -0.0055654 0.0681423 0.0127597 -0.0202255 -0.0183251 0.0935259 0.0933902 -0.1090005 0.0028506 0.0200898 0.0366502 -0.0149316 -0.012624 -0.0708571 0.0716715 -0.1068286 -0.0832096 -0.0499529 -0.0035293 0.0427586 -0.0458806 -0.0164247 0.0039365 0.0908111 -0.0200898 -0.0010859 0.0161532 -0.05674 0.0097734 0.0119453 -0.0219901 -0.0371932 0.0697712 0.0164247 0.1152446 -0.1398138 -0.0533464 0.0541609 -0.0131669 0.0229403 -0.0643415 -0.0211757 -0.1096792 -0.048867 -0.0416727 -0.0541609 -0.0139814 0.0787301 -0.0172392 0.1060142 -0.0342069 -0.0001357
star wars movie -0.07383482100631229 -0.026535558473502533 -0.008301423947020388 0.04184729609971219 -0.08657389399835189 -0.03623190685016706 0.045566259129096925 -0.07876863232443224 0.09231070226957669 0.03458516066543093 0.03667425969454005 0.05750084072833029 0.0771940704492671 0.061487252438939606 -0.0709177770489988 0.04088903538105984 0.022611926624887806 -0.017516586818206396 0.06158822433881025 0.04132147639370574 0.07568816857802964 -0.07711531797557683 -0.015117980706667975 0.06942945626420094 -0.0045872401383020255 -0.013873388904142973 -0.004042867111504554 -0.01000219201489912 -0.010603562575130782 -0.025345720419941695 -0.03600115176172417 0.07626840012284267 0.015587698075802677 -0.009164953990911297 0.05119305697571913 0.006477806678866448 0.012102258285256835 -0.02811262913133325 0.08611333269848422 0.07648798012723938 -0.0026586183873653856 0.01312620862032881 -0.09414233216055036 0.02003538806479063 0.030251676826295475 0.09987379982605765 0.0361387967819323 0.006291298478800624 0.04597211562681552 0.005503023055265863 -0.06393352885335937 0.006832120886217363 -0.029464743315165264 -0.02580652558640111 -0.008511995445121505 0.05216668262819627 0.03126842503534133 -0.08420906769090508 -0.07442666007251014 -0.06443100362386485 0.07719205139687833 0.007255900270998887 0.0701707609264569 -0.03110416127889993 0.003247557193676972 -0.058694182711845774 0.015350455166003986 0.07075318520940523 0.04944013335072709 -0.062288154710956785 -0.07271508822280708 -0.056431764671240905 -0.025578410212427412 -0.07303041151503248 0.03832124012043869 0.04335407253782673 -0.0050332456133032515 -0.0570085581590125 0.02783355918175572 -0.05643132683374045 0.0645015973935615 0.021953066553641012 -0.02066632477049679 -0.0013087151624836257 0.002162483994271559 0.011957231709866362 -0.07842042385436028 -0.0895191106009312 0.0157660547446138 -0.12221566271618339 -0.02199688560347977 0.02006151439618459 -0.023555520753370043 -0.06236923757507618 0.016323347453732016 0.11593946429619263 -0.013450419482420923 -0.013102193442501622 -0.059116601080090966 0.009437730860970743 0.035437313870348354 -0.029815047948284802 -0.01752108768617411 -0.015450627725436147 -0.10347203639347433 -0.16824785004839005 0.042166913730731496 -0.017496517897742914 0.10243375387671842 0.06364936350039621 -0.024006288131812152 -0.016989353204162106 0.04249963199095386 -0.03471717387686332 -0.006884157839027323 -0.11061555407116881 -0.03453677218904633 -0.02755692431245036 0.054665000623799934 -0.008509128248680217 -0.039587402920319786 0.013603795700261215 -0.05051759626758223 -0.031232996287996095 0.05453341914791917 -0.06228084389543243 0.005189741777137602 -0.10880673047328002 0.0031956488244537107 0.14466037822463843 -0.03791848996612474 0.06348652977718207 -0.042114329380733846 -0.08974476742293662 -0.005613900575895307 0.011538548510183672 0.02607348529135511 -0.0405831586129974 -0.07184076470912433 -0.04435300399325008 -0.008281287999997554 0.02602062313872116 -0.06996619625208758 0.0019600698881547442 -0.10861640936967425 0.0034018760084433422 -0.04749141371696227 -0.032725547756156825 -0.03787614224774896 0.01571931253440247 -0.01583208008050381 0.1030665001252528 -0.052000446294208434 -0.06981138179888313 -0.041668724406742685 0.03183845045358015 0.013554982958163606 0.05569654016283502 0.013569665682107301 -0.002803879423003215 -0.007830587517622785 -0.07302748530220422 -0.04690708835602293 0.03757197437958794 -0.0005418343766012842 -0.03192630277647386 -0.040615198233102466 -0.09179397279649039 -0.15108303751280264 0.026833243798125878 0.02294021678529964 -0.1529830449579853 -0.09580308681226689 0.04845423365380337 0.010757826203574355 0.0724263155950398 -0.1362730623473474 -0.0005608296261212555 0.0017595774328359466 0.03419615331177486 -0.034696481081100204 0.028454882335242775 -0.019289384781278774 -0.03764849773792916 0.005306152865827506 0.06644257158199238 0.09355579132651998 0.20630387600442557 0.09010501024141841 -0.03024795701881318 0.04714158766298211 0.04662663690366467 -0.04840885546810538 -0.010472278983831195 0.03526775668103522 0.021493766496225628 -0.029639121944870794 -0.017582775774889828 0.020328021316359766 0.0022603373698643022 -0.04984171260537625 0.11784160291384548 -0.0073477369922581555 0.010059583349896782 -0.01921474897844809 -0.022391379811637534 0.08147579385039687 -0.04898913524116277 -0.0001702451667604898 0.0007005491058987555 0.19918316526709998 -0.021531663057455585 -0.029033170166689447 0.005177165461017392 -0.05040882349966414 -0.1841122713586002 -0.007033617461734671 0.13147695622100475 0.07648642533630914 0.018765948422743588 0.028288183042129298 0.0806197803119588 -0.04356967155604104 0.0974219393345038 0.035190588877933415 -0.016098085234308297 0.028025007018905198 -0.0029249885445950616 -0.026468881180352465 0.021614180599810403 -0.0016342851012270637 -0.1126732586102185 0.03177480171155226 0.033668727559652376 -0.05925585246843366 -0.02623144915252241 -0.0006782314517564549 -0.029836626515004204 0.009628000262134225 0.024549177443630686 0.0816572199312071 -0.06792237137341443 0.004167942024829032 -0.1595366664638082 0.11881806853458243 -0.005568799161152714 -0.027012383995879092 0.08134508137432603 0.05523235527371823 -0.012854615430699818 0.020229251294631552 -0.06809449382598626 0.007331182327648087 0.07599117409384462 0.03662312878054248 -0.026016597154447634 -0.035433038874489106 -0.030276099884008326 -0.032493698385159225 -0.02554831965161636 0.0013432851597042525 0.05606168758068938 -0.007146606159162814 -0.03351915054397735 0.03281124592656523 0.03864951988936681 -0.04192425246753833 0.04286839153502268 0.03382415615130982 -0.01407428383567412 -0.03901447185236706 0.13458572842511649 -0.0895895240509098 0.030118943857848145 -0.004266671828168487 -0.01012656370942212 -0.051123753277692176 0.008101348605613784 0.06238229723408219 0.012633829061014065 0.07416943444138827 -0.025001121586093633 0.020601141056632445 -0.03609288166609323 0.023746604725259805 -0.12842949440305576 0.06434657539885986 -0.050769812214609016 -0.05704724994541211 -0.0023622315068772006 0.010180678793654979 -0.014151226276614543 -0.1057017421979389 -0.02998871405318857 0.07308622123088702 0.0576075120508379 -0.0004199648355125253 0.025075943797102443 0.06445527561667862 -0.01712130520866502
barcelona 0.0320209 -0.0525287 -0.0374177 -0.0413754 0.060444 -0.0539679 -0.0003598 -0.0787931 -0.0266241 -0.0586451 -0.0032381 0.0032381 0.0183491 -0.0575657 0.1223272 0.0863486 0.1867288 -0.0197882 0.015111 0.0007196 -0.0942639 -0.0593647 -0.080592 0.0507298 0.0384971 -0.0313014 0.0381373 -0.0928247 0.0449732 0.0514494 0.075555 0.0259046 -0.0122327 0.0 -0.0485711 0.0068359 0.0392167 0.0611636 -0.0640419 0.0223067 0.0539679 -0.1338403 0.0118729 0.0194284 0.0672799 0.0154708 -0.0679995 0.0514494 -0.0395764 0.0399362 0.0546874 -0.0331003 0.0233861 -0.0492907 -0.1039781 -0.0514494 0.0259046 0.0456928 -0.0744757 0.0712376 -0.0694387 0.0183491 0.1039781 0.0021587 0.0510896 0.0413754 0.0194284 0.0017989 0.0741159 -0.0931845 -0.0118729 -0.0532483 0.0662006 0.025185 0.0449732 -0.0841899 -0.0550472 -0.0183491 -0.1064966 -0.0388569 -0.025185 0.0392167 -0.0823909 0.1928452 -0.0277035 -0.1151315 -0.0075555 0.0460526 -0.1424752 -0.0464124 -0.0212274 -0.0194284 -0.045333 0.040296 0.1338403 0.0748354 -0.0291426 -0.0762746 0.0061164 -0.0370579 0.0097142 0.0417352 -0.0212274 0.0949834 0.0726767 -0.0834703 -0.1295229 -0.0395764 0.0597244 0.1295229 -0.0323807 0.1413958 0.0417352 -0.0223067 0.0615234 0.0733963 -0.10074 -0.0233861 -0.0187089 0.0895867 -0.065481 0.0129523 -0.0327405 -0.0057566 -0.0035979 -0.0903062 0.1485915 -0.0129523 -0.0464124 0.0345394 0.0061164 0.005037 -0.035259 0.0133121 -0.0870682 -0.0259046 -0.0014391 -0.0032381 -0.055407 -0.0870682 0.0075555 -0.0244654 0.0471319 0.0143914 -0.0295024 0.0629625 -0.0561266 0.0557668 -0.0384971 0.0183491 0.0043174 -0.065481 0.0935443 0.0600842 -0.0014391 -0.0582853 -0.0021587 0.0435341 0.0438939 -0.0089946 0.0115131 -0.0244654 -0.0061164 -0.0237459 0.0626027 0.0176295 0.0543277 -0.0345394 0.0723169 0.0676397 -0.0212274 0.0147512 0.0431743 -0.0888671 0.0446134 0.0798724 -0.065481 -0.0366982 -0.0381373 -0.0259046 0.1172902 0.0158306 -0.030222 -0.0287829 0.0140316 -0.005037 -0.0309416 0.1244859 -0.0169099 0.1140521 0.0532483 0.0147512 -0.1043379 0.0697984 0.0471319 0.0420949 -0.0658408 -0.0273437 0.0323807 0.075555 -0.1575862 0.0169099 0.0460526 0.0115131 -0.0111534 -0.0133121 -0.0687191 -0.0280633 -0.0388569 -0.0586451 0.1018194 -0.112613 -0.0215871 0.0136719 0.0478515 -0.015111 -0.0122327 0.0129523 0.0363384 -0.0593647 0.0460526 -0.0813116 0.0093544 0.0967824 -0.0521689 0.075555 0.0597244 0.0859888 -0.0348992 -0.0118729 -0.0143914 -0.0662006 -0.0561266 0.0014391 0.0536081 -0.0658408 -0.0187089 0.0032381 0.0032381 0.0795127 0.0532483 0.0075555 0.0608038 -0.0536081 0.030222 0.0759148 0.0651212 0.0777137 -0.0313014 0.0017989 0.1111738 0.0172697 -0.0165501 -0.0348992 -0.0003598 -0.0215871 0.0075555 -0.0413754 -0.0147512 0.0410156 -0.0212274 0.0726767 0.0489309 -0.0435341 -0.0039576 -0.0039576 -0.0010794 0.0169099 -0.0104338 -0.0140316 0.0640419 0.1090151 -0.0046772 -0.0043174 -0.0345394 -0.0305818 -0.010074 0.0813116 0.0690789 -0.0273437 0.055407 0.0248252 -0.0255448 -0.0874279 -0.0388569 0.0035979 0.0147512 -0.0043174 -0.0277035 -0.0154708 0.0273437 0.0679995 0.0093544 0.0053968 0.025185 -0.0158306 -0.0773539 0.0759148 0.080592 -0.0388569
Joseph 0.0317526 -0.0164822 -0.02133 0.016967 0.0460533 -0.1081042 -0.0261777 -0.104226 0.0087259 0.0632627 0.0002424 0.0678681 -0.0210876 0.0286015 0.0557488 -0.0845927 -0.0329645 -0.0002424 -0.0668985 0.0109074 -0.0387818 0.0475077 -0.0373274 0.0717463 0.0186637 -0.035146 -0.0324797 0.0261777 0.0547792 0.0264201 -0.0562335 0.0157551 0.0021815 0.1810623 -0.1512489 0.0652018 -0.044599 0.027632 -0.0315102 0.0104226 -0.0702919 -0.0557488 -0.0162399 -0.0453262 -0.0046053 0.0952577 0.0101802 0.0465381 -0.0441143 0.0264201 0.0101802 0.0719886 -0.0792602 0.0206028 -0.0310254 -0.0026662 -0.0419328 -0.0504163 -0.038297 -0.0545368 -0.007514 0.0666561 -0.030783 -0.0271472 0.0453262 0.0567183 0.0012119 0.0210876 -0.0058173 -0.0176942 -0.0206028 0.0390241 0.1117399 0.0133312 0.033934 0.0305406 0.0196333 -0.0688376 0.0950153 -0.0058173 -0.0598693 0.0210876 -0.0528401 -0.0453262 -0.0504163 -0.0227843 -0.0310254 0.1110128 -0.0695648 -0.006302 -0.003151 -0.0269048 -0.1093161 -0.1711245 -0.0164822 0.0957425 -0.0593846 0.0111498 -0.0523554 -0.0438719 0.0036358 -0.0239962 0.0065444 -0.0312678 -0.0959849 -0.2062705 0.0455686 0.0843503 -0.0198757 0.0559912 -0.0366003 -0.0831384 0.0332069 -0.0366003 0.0092107 0.0179366 -0.0135736 0.0143008 0.1495522 -0.0298135 -0.0176942 -0.0193909 0.0671409 0.0155127 -0.0836232 0.0009695 0.0157551 0.0525978 -0.0206028 0.1119823 0.0019391 0.0220571 0.0019391 -0.0210876 -0.0036358 -0.0235114 -0.0513858 0.0130888 0.0702919 0.0210876 0.0375698 0.038297 -0.0981663 -0.0334493 -0.0300559 0.0128465 -0.0564759 0.0145432 -0.0324797 -0.0392665 0.0516282 -0.1999684 0.0848351 0.0356307 0.0719886 0.0637475 -0.0222995 -0.0419328 -0.02133 0.024481 0.0058173 0.073443 -0.0324797 -0.0283592 0.0462957 -0.035146 -0.0164822 0.0174518 -0.0058173 0.0128465 0.0542945 -0.0286015 -0.0206028 0.0535673 -0.0135736 0.0361155 -0.0286015 -0.0438719 -0.0101802 -0.0741701 0.0070292 -0.0186637 0.0392665 -0.0542945 -0.0494467 -0.055264 -0.0004848 0.2142692 -0.0341764 -0.0809569 0.0050901 0.0390241 -0.1548846 -0.0133312 0.0121193 -0.0014543 -0.016967 0.0470229 0.0002424 -0.0055749 -0.1173148 0.0853199 0.0341764 -0.0770787 -0.0334493 -0.0159975 -0.0281168 -0.0572031 -0.0237538 -0.0923491 0.0911371 0.059627 -0.0511434 -0.0346612 0.0322373 0.0140584 0.0487196 0.0176942 -0.1083465 0.0724734 0.0385394 -0.0271472 -0.0176942 0.0811993 0.1233745 -0.0118769 0.0256929 0.1061651 -0.0424175 0.0278744 0.0899252 -0.2312362 -0.0506587 -0.0305406 -0.0353884 -0.0693224 -0.0012119 0.0135736 -0.0184213 0.0482348 0.0402361 0.0111498 -0.02133 0.0050901 0.1245864 -0.0159975 -0.0007272 -0.0312678 0.0230267 0.0375698 0.0007272 0.0087259 -0.0089683 0.0591422 0.104226 0.0096954 0.0174518 -0.0012119 0.02133 0.0196333 -0.06908 -0.0176942 0.0152703 0.0598693 0.0361155 0.0564759 -0.007514 -0.0179366 -0.0121193 -0.0875013 -0.0058173 0.1197387 -0.0574455 0.0656866 0.0991359 -0.082896 0.0176942 -0.0344188 -0.0475077 0.052113 -0.107377 -0.0664138 0.010665 -0.0395089 0.0050901 -0.0176942 0.0264201 0.0184213 0.0041206 0.1027717 -0.0286015 0.0150279 -0.0448414 0.0421752 -0.0688376 0.0130888 0.048962 -0.003151 -0.0249658 -0.0334493
tappert -0.04235718078468801 0.03381385168715681 -0.03260646329741479 0.04831748881024916 -0.010033116247122697 -0.004634743838186655 -0.010580520190371366 -0.1066384956222885 0.019793973585849226 0.023553826735847425 0.004276464719650442 0.011121249863684006 0.024855694320994798 -0.012969753929360074 0.07093343254354338 -0.021597475203079537 -0.05557975208876504 -0.010261501737557584 0.1442040445276966 -0.01046793672356538 0.08097089825743128 0.02792606588185557 -0.04095553375922671 0.09470539730682953 -0.014191279093700944 0.018296368823331702 -0.049223036327746536 0.019794069937317527 -0.030247701109390086 0.010433205937879749 -0.06159466345802277 -0.0030795004832533854 -0.03461787182664473 0.16242908803691722 0.008381647865031396 -0.005503034486970017 0.0038526256793608555 -0.0200564799489163 -0.01566483925541589 -0.026426621235161235 -0.007341930403606495 0.057854354790991235 -0.06815402320142938 -0.0339076999698045 -0.026588255599826558 0.026656866203639856 0.003100417505666809 -0.008813554060289884 -0.07208482982179457 -0.06402332996330207 -0.017553654058969678 -0.038930225045276746 0.0024458527924153413 -0.0478128034046319 -0.05403227671778555 -0.009291909600692956 -0.00272103269296701 -0.06220586701739591 -0.045495763633929265 -0.021326217991514088 0.03569334109487283 -0.05434729172724348 0.06768062886170695 0.0061682246965653565 -0.002675145484565576 0.022643170359355005 -0.022870824067431572 0.017576076960668242 -0.023042075568626617 0.03396148142759269 -0.03292792632135835 -0.07204174763971571 0.11394841255520405 -0.01581195666442644 -0.008560484643943439 0.03742577548732263 -0.0011410019653020419 -0.10368491703463834 0.045458125845439644 0.02234547644660387 0.0072561040050191355 0.020872379613774555 0.05328869220056104 -0.0353269631786448 0.0255040527535007 0.020339609424210234 0.05426041120299805 0.06393069640953927 -0.029997019111620234 0.037027296326797285 0.0039464362897471475 -0.06848685447504309 -0.15271245304200098 -0.13112753787268414 0.011364483811918345 0.25540041123672796 0.002811932554064102 0.007735508945128988 -0.05261627394157795 0.060405983593232314 -0.008230782757040808 -0.021684019100892137 0.07184586270472296 0.06513135160612442 -0.16954505691660385 -0.2182655493571221 0.019905290646910694 -0.01683766189885068 0.008466907100612542 -0.0009956909366116236 -0.041992327797796145 0.05297026663962376 0.0964232073466952 -0.0169732078401484 0.010464782464915293 0.0018752656052242812 -0.0044942863902331315 -0.007617346481300482 0.09612216711080368 -0.0167764464508137 0.01415084986765651 0.006563655709063749 -0.01837622775838575 0.030387742691539033 0.07216060517558996 0.010920329654921039 -0.008716727457464872 -0.05784490118693877 0.04443122509830912 0.1481742468608107 0.03249319165022211 0.015580701805786556 -0.03407122757775219 -0.0527157697651006 0.061418264457690226 0.04826908169714793 0.018184762870804477 0.09221101114990463 0.04655731916341434 -0.03272382219162397 -0.03780921410044478 0.0697016793501969 -0.03950349455417961 -0.005710348603622444 -0.03173760393322525 -0.05270610008170979 0.015052707719467909 -0.021765038573890803 -0.05000297607053924 -0.09398194599670917 -0.04018531167695924 -0.14035584300499288 -0.05787391052917374 -0.12940905425238872 -0.030718120317867963 0.0426575917093599 -0.007716236546354674 0.07284272240036774 0.051058129494985054 0.0042051624526324854 -0.03916926653894091 -0.03508895476741219 -0.07752062402719671 -0.043989223321595224 0.035486560367233695 -0.03882845015185511 -0.010594109679419563 -0.03668802836043964 0.03655072022685415 -0.059396429767112346 0.06677909565428355 -0.015548675557407753 -0.056280678055150954 -0.009809665756376944 -0.06018337293856406 -0.05955463881796132 0.010353849911306523 -0.004809340305192992 -0.05382869553641435 0.022868798990179393 0.013940830575106018 0.01771874105750037 0.025256396683580963 -0.039153935391142064 -0.009860477755955053 0.11372239301353324 -0.018517819765071077 0.1317916012037005 0.0003628747234521691 0.0045146656248265605 -0.006168889539844552 -0.061865869219904404 -0.08859594161002746 0.026601367933224054 -0.006483428271965917 -0.0053253396827010226 0.012779892469598524 -1.265772484652721e-05 0.04910188664782857 0.03750359349589553 -0.1144450217978983 0.06852976101517147 -0.04345683541948554 -0.019185787320949044 0.01465238524348189 0.0048202583018444696 -0.019715396489556836 -0.02897480397522775 -0.11000407419116225 -0.0622757177746566 0.15678846132332533 0.08696863333250573 0.04288573546551497 -0.05253879961760453 0.035107492190039224 0.03014865132978003 0.060176531731956306 0.06203260663704128 -0.019378237514554513 0.021694079091447063 0.0481055101632766 -0.07552429048507124 -0.040564558140894234 0.10289884416468666 0.09723065709638953 -0.014454908492295209 -0.005560487065268464 0.13842320725673435 -0.010980346216408893 0.04950768634972992 0.017229500763079404 -0.10169201386904549 0.027241717000782286 -0.06822474772972158 -0.04663317595705472 0.03704598508177716 -0.028344498746176658 -0.013984999548968317 -0.02388977879549391 0.01828887757801774 0.10813800511883546 0.029964351640386782 0.07616309467895992 0.014934587555933205 0.18175967747730054 -0.04678369863132142 -0.06257806961521671 -0.012082788349534303 0.03471787606995914 -0.016187925701387443 0.0326328033275353 -0.023342930071061856 -0.024417417363640007 0.07570180317114468 0.003926716156702537 -0.005178848405642925 0.03803871590023808 0.05578290219422454 0.05987481329502823 -0.04517943799787607 0.041194745842650336 -0.03676515767558091 -0.0589008257671852 -0.040334124481131904 -0.008279149588090092 -0.03011831861080811 0.03866531671482352 0.03641977921266335 -0.040251505317072896 -0.0031586154499283164 0.04607325370131556 0.19387344090591202 -0.15032452296185367 0.06905237302418285 0.04214396465381328 -0.028258008842703086 -0.020353139487408314 0.042900217021534105 0.01587191060642399 0.0186669412278357 -0.018492802066575387 0.00601646318063154 -0.029482966360253354 -0.006179513267219469 0.014324574479114874 -0.02783791297675371 0.08145442906459248 0.028993327787983872 -0.10372422927568377 -0.002636571489728401 -0.01795202835534612 0.0368813852215852 -0.03872127260473279 -0.03517288105252863 -0.03247726848375411 0.023529722127296593 0.018677300866522178 -0.013924899684409946 -0.0477611241061333 0.006233468243001609
usa 0.0769597 0.0064695 -0.0229127 0.0717033 0.0018869 -0.0655034 -0.0377386 -0.0512166 0.0548557 -0.0568774 -0.0066042 -0.0591687 -0.0002696 0.0126694 0.0137476 0.0688729 0.1466413 -0.0839683 0.0520253 0.012265 -0.0482515 0.0185997 0.0234518 0.0109172 0.0311343 -0.0305952 0.1009507 -0.0448819 -0.0336951 0.0107824 0.0130737 -0.0045825 0.0092999 0.0117259 -0.026417 0.0464993 0.0863944 -0.0235866 0.0146911 -0.0111868 -0.1144287 -0.095829 -0.0237214 -0.1250764 0.149876 0.0458254 0.0080868 -0.0886856 0.0347734 -0.0381429 -0.0057956 -0.0382777 0.025204 -0.0726467 -0.0712989 0.0181954 0.0613252 0.0785771 -0.0297865 0.0644251 -0.0686033 -0.0018869 0.0897639 -0.0021565 0.0237214 -0.0824857 -0.0557992 -0.0584948 0.1250764 -0.0710294 0.0099738 -0.0819466 0.0851813 -0.084777 0.0137476 -0.0584948 -0.0389516 0.0655034 -0.0753424 -0.0567426 -0.0332908 0.094616 -0.066986 0.1833016 -0.0278996 -0.006739 -0.1004115 0.0004043 -0.1064767 0.0044478 -0.0566079 0.0336951 -0.0412429 0.033156 0.0695468 0.104455 0.011052 -0.1312763 -0.0675251 -0.0266866 0.0913812 0.0192736 0.0266866 -0.1549977 0.0452863 -0.1731931 -0.0823509 -0.0432646 0.0274952 0.0309995 0.0188693 0.0690077 -0.0268213 0.072512 0.0309995 0.0191388 -0.0797901 -0.0234518 -0.0336951 0.036256 -0.0633469 0.0312691 -0.0191388 0.0367951 0.0160389 0.0584948 0.0159041 -0.0745337 -0.0956942 0.0392212 0.0318082 -0.0226431 0.0384125 0.0489254 0.0129389 -0.0680642 0.0622686 0.0463645 -0.0185997 0.0097042 -0.0291126 0.0316734 -0.0413776 0.065099 -0.0677946 0.0908421 0.0191388 -0.0265518 0.0335604 -0.1000072 0.0303256 -0.0211606 0.0555296 -0.0622686 0.0078173 -0.0808684 -0.0159041 -0.0245301 0.0735902 -0.0254735 -0.0090303 0.0459602 0.0102433 0.0084912 -0.0103781 -0.0501384 0.0398951 0.0462297 0.0416472 0.0265518 -0.0285735 0.0273605 0.035043 -0.0247996 -0.1022985 0.068199 0.0035043 -0.0004043 0.0702207 0.0801945 0.0230475 -0.0059303 -0.0764206 0.0039086 -0.0332908 -0.119146 0.0717033 0.0812727 -0.0428602 0.016578 0.0420515 0.093403 -0.0582252 0.0326169 0.0452863 -0.0002696 -0.0505427 0.0126694 -0.0040434 0.0668512 -0.1582324 -0.0021565 -0.0146911 0.0049869 0.0103781 -0.0226431 -0.0137476 -0.0924595 0.0238562 -0.046095 0.1326241 -0.0932682 -0.0016174 0.0363908 0.0432646 -0.0144215 0.0014826 0.0324821 0.0839683 -0.0237214 0.0494645 -0.0586296 -0.0919204 0.0851813 0.0254735 0.1839755 0.0745337 0.0956942 -0.0475776 0.0493297 0.0181954 -0.0257431 -0.0324821 0.0578209 0.0726467 -0.0342343 0.0691424 -0.0397603 0.0579557 -0.0079521 0.0126694 0.016578 0.0541818 -0.0475776 0.0218345 0.0161737 0.0696816 -0.0454211 -0.0629425 0.0146911 0.042995 -0.0206214 -0.0739945 0.072512 -0.0175215 -0.0655034 -0.0002696 0.0107824 0.0045825 -0.0283039 -0.0247996 0.0610556 -0.0032347 -0.005526 -0.0397603 -0.0486558 0.0719728 0.0253388 0.0179258 -0.0136128 -0.0171171 0.06146 -0.037469 0.0126694 0.0168476 0.0009435 -0.1176635 0.0107824 -0.0195432 0.0033695 0.0500036 0.0518905 0.0287083 -0.0107824 -0.1103853 0.0010782 0.0575513 -0.0781727 0.0439385 -0.0407037 -0.0793858 -0.0088955 0.0610556 -0.0119955 0.0175215 -0.0878769 0.0009435 0.0525644 0.0175215 0.0766902
new york -0.0349379608430421 -0.11815689205904735 0.007413631570215872 0.0379335554600891 0.03421586524728264 0.045001036790572164 0.06958715867640547 -0.005498897158035321 0.017329905787498028 -0.010383830639017481 -0.06964462417293839 -0.06634895553518154 -0.017552140661925366 0.061354507451194834 0.06771816982094522 0.06992375408638951 0.08770232793531942 0.01304454579438853 0.07596871082952748 -0.05483261910815902 -0.002413158490139933 0.03154941816183169 -0.06521934915920599 0.038555621821889166 0.07336727837935093 0.06410765251894514 0.04101011502537584 0.07896077173575711 0.026364592108045554 0.07093314188053385 -0.07935774034484157 0.004856073331317106 -0.013824864023890649 -0.016707090499612977 -0.004892026801520593 0.04499779600865127 -0.07659535325916705 0.029895969174874068 -0.07414563745651456 0.01887742024460205 -0.030608421416441083 -0.07997706436924486 0.05254645653791052 -0.005911251076692474 0.09879193889884615 0.053113810583729576 0.06461268415983595 0.027103832959093025 0.0016162823946089858 -0.0011169111436587257 0.005990115749228207 -0.016901187963248406 0.027441686975838334 0.050484586382077465 -0.03449015065305009 0.036478608962577326 0.03355779341126717 0.009323521835314975 -0.027865091036450875 -0.04444908962935875 -0.023524559655998176 -0.023862172803612424 0.11841331960291343 0.022242433911177317 0.019060423515488256 0.03479361385679188 -0.031087449117710924 0.00604630453636081 0.0215749367085402 -0.008623316359261004 -0.0027613729595109457 -0.01581837181697177 -0.04699018102756351 0.027277772859692486 -0.0709353102959728 0.055894493559500075 -0.0808821312436214 -0.001811338940630125 -0.058827734998403484 -0.003325616122099983 0.10127984065274813 0.1259656836107212 -0.08704946478808512 0.03538550544196284 -0.04552909155530825 0.03221141880776374 -0.08150245170558673 -0.06500846370316721 -0.05775389665656869 0.015716544547435575 -0.03334245991356943 0.058761201281082316 -0.01866887123145578 0.07756986016103913 0.01839986605269716 0.14620033675768968 -0.017929592520232237 0.02071497091023426 -0.11663169940289721 -0.02784040743420883 0.0018456313060857305 0.07932377609150228 0.016552201819943945 0.03282586533446019 -0.0074093994712732866 -0.05754592716365323 -0.06745198095038243 -0.08712869057515372 0.06652787884680428 0.02014184589543573 -0.015185821810535606 0.08912998124034786 -0.05788070988567233 0.014209704157350253 -0.03481430114251215 0.07648704142295887 -0.05914337048734692 0.02397992526785719 0.15241852751736476 0.04038889631170431 0.050938883306163994 -0.03472061374128886 0.023141940283818895 0.05704809055729947 -0.03583253151402499 -0.06850282327320056 0.04094522934878721 -0.06810248540198625 -0.06745874292125312 0.10568309604384887 0.08909196392012061 0.06641835180870552 0.07450066697133166 -0.010952605885317802 0.04089559045645201 0.046733900021014 0.00271344171113422 -0.05543428397902175 -0.1107750568590245 -0.03912952733940482 -0.030991949082671912 -0.0034504163321643047 -0.003317736429965118 0.12131663744643971 -0.09054715049266436 -0.039828448471392254 -0.005619298017262464 -0.07133379019267448 0.03006354087125792 -0.028060995316612276 -0.04318617263101452 0.018817636495135317 0.029500664637186542 0.04287091215539845 -0.033452709853183986 -0.021443003187760764 0.018939707205804273 -0.04070077255575404 0.04043042336783621 -0.1268648957190252 0.016631842561840596 -0.057611775567237004 0.054239487324475054 -0.006601167364090573 0.0004410585639859239 -0.003638201114520746 -0.03002634914740281 -0.09519301012545144 -0.04369917264150224 0.05300086382691008 -0.02809608757245186 0.004824264590781981 -0.01919202653651938 -0.014072402679202572 0.02675256866320443 0.07088557347537523 -0.023681316926460732 -0.009641300948507712 0.006707533669989756 -0.024519895931618237 -0.0012275968532546966 -0.06060989133760734 0.02020506662063079 -0.09143721269013988 -0.05337756038772708 0.07132363422396051 -0.02630494933696626 0.306132444206115 -0.08933979254085854 0.05234791558944209 0.021387129737327575 0.05917883045259062 -0.07322399317540196 0.010063846089966768 0.06445821786958295 -0.031579705470823415 0.01520478024800303 0.12485315037865732 -0.0075531662204468 0.002188238287986012 -0.04589110566884011 0.03582018501140878 0.0834503874469267 0.11575849284648115 -0.04771734602285362 0.005008828391212108 -0.006048970932585537 -0.03174159436641658 0.013292102281794187 0.03842049163097705 0.09242823598847519 -0.006595006755240616 -0.08047107096779997 -0.0009370579614110267 0.0032334422682042045 -0.04901959484549807 -0.007184250910861077 -0.031374617025297515 0.03775218987498305 -0.058013877952352126 -0.010524677568986772 -0.022120994190193307 -0.012361313061200925 0.06376607041418206 0.009519162030215165 -0.032770025745192596 0.05238238645973437 0.06336830369263836 -0.030199835417592764 -0.08084813271143303 -0.05297606728617465 -0.03935375505439697 0.06124880815520726 -0.06269922701561263 0.01155336204229601 -0.050973193986051865 0.04147920647957383 0.030835703597673705 0.022264564785388616 -0.06113039211197553 0.056098407931884864 -0.014919945273712331 -0.06525305217338453 -0.03685958604682785 0.09533238199673374 0.000540085219256698 0.011427320604309347 -0.05602483907171313 -0.0058459066470523445 0.013537662178621164 0.053868089473117685 -0.010022118206110465 -0.012756605711118234 0.023771016767508205 0.04351256316461468 0.05961819872756015 0.043394460897880086 0.09154985380705928 0.06562961336726568 0.05739433076822 0.012776256475577724 0.014000646846963451 0.0452209705941768 -0.17866984251917123 -0.06281142554323314 0.02654996335396237 0.07409570178831908 -0.018162584506033922 0.001997604515581512 0.07802838297044043 -0.015312538525444487 0.08012541565900289 -0.08108111318651541 0.11152653688341584 -0.018086034175903376 -0.05071704577658804 -0.03212978346906224 -0.06471208129550145 0.003040929858620449 0.029032219862034216 -0.020003344315326438 0.05453251381534602 0.03397859369679035 -0.029430634346796346 -0.080540872724326 0.03758998629374117 -0.058313051157350214 -0.09408490626865956 -0.045568789474142946 0.030728111210405886 -0.0011681837304628202 -0.011917730407803409 0.1383872639341078 -0.05122275226079545 -0.1441310978635678 -0.004414403417287561 -0.015116135382413158 -0.009392247804542612 0.0006734440769221843 -0.10947570209796814
Lionel Messi 0.025310714311718573 0.001137984205279605 -0.005601872426926417 -0.0036262500849356706 -0.03738014082000016 -0.029335838205764717 -0.03604894172645042 -0.052622130479482006 -0.013702471155859878 -0.04323266529261958 0.006668930548690877 0.013320683436911606 0.07189422087899905 0.03715687388261953 0.03218232233764578 0.11192113848375652 0.045086182776136435 0.021081075522836775 0.06127595242238072 -0.019353971310516575 0.01313110299892545 -0.06872816157882865 -0.02421053846333619 0.06859501816787318 0.015927742706191066 -0.05963251189569209 0.1026804939368793 -0.04391483330622092 0.10296170091485636 -0.09390180121920683 -0.055444802016079486 -0.018826152826096024 0.012136292507046299 0.146154220675895 -0.03769882643228077 0.024090311622366325 0.004392894069538343 -0.014182466819683444 -0.01125228056947389 -0.0027874071903916386 -0.007557896239200195 0.014148355851024324 0.04170620840208851 -0.008408398666262053 0.07088589878800428 0.006744808128397596 -0.09980085115380631 0.02797345759094271 -0.053093447550048065 -0.04337373067346146 0.07631701746062325 -0.002027084785935132 0.07437364862688482 -0.06525700352485743 -0.03924726222806405 -0.03632202707127459 -0.01901374760116041 -0.05523057849302651 -0.06369963267014686 -0.01297577538615631 -0.02668028113206032 -0.055981638933258575 0.06154326147222009 -0.034817188528489064 0.04043534117386163 0.09943315133136688 -0.010688182681961362 0.057737445412763634 0.07771175960479791 -0.09227502418161185 -0.04013888051968287 -0.07831547636341545 0.14985606001968588 0.017593104834331623 0.04040802953260813 -0.0810727377030525 0.003201003569843235 -0.022162248300791536 -0.024821089654442678 -0.07439924817185035 -0.03208098273835646 0.01760255780576984 -0.031260111076441575 0.10844019852898668 0.0717278945946822 -0.09869018889303935 -0.0417730158165597 0.048310170854679764 -0.07340340311008005 -0.0883541812139767 -0.12421583546618492 -0.035833941953695034 -0.0923793792128049 -0.07832225199001226 0.058967550079381356 0.167140731600328 -0.019056439363963062 -0.11763612671485606 0.04767458707114385 -0.0729466864078933 0.030855992501138185 0.02674480411246655 0.05628338709337797 -0.028792803214818675 -0.07351693521326229 -0.16124194910850975 -0.09262792572555884 0.05152043303858284 0.0027076367503482694 0.08853004769760818 -0.00991850314486504 0.04508828986577505 -0.019124904788929118 -0.038367779889604436 0.060093443271926325 0.011470836156695675 -0.025519034805951867 0.017192708947112965 0.0455266078889496 0.03350032633314285 0.017828848205832946 -0.0032948886153355977 0.015196601123557321 0.03578183905341217 0.04068655352323174 -0.0828187824591822 0.10123758984949856 -0.07788390733759978 0.012291519485268552 0.056455977101613 0.007027655191897016 -0.03760689066126704 -0.023381166061715048 -0.07120466042079544 -0.07734106953446503 -0.04678959574284933 0.04643341502046717 0.056044823185586526 0.0571708988649885 -0.044377399620306575 -0.004921613551292668 -0.046405767102055594 0.09254377524595331 0.07447643579672451 -0.07591576519374824 0.07834877604149386 -0.06040733449953253 0.006194807383412664 -0.032216307989049585 -0.012925034847275115 -0.006872669442265206 -0.044919626975798446 0.1269127469528089 -0.044732134556736816 0.026376517841269095 -0.01176535435027447 -0.014558274055489425 -0.04349499052728378 0.033458307950596566 -0.038246144572643866 0.018247525116415194 0.016120557103096816 -0.12426343610194157 0.016549509444578284 0.04379743719187858 0.04071689913712107 -0.014739945306811207 -0.009665845838742046 0.05863249909866121 -0.0005509866992428832 -0.029463817095546768 0.0273906261576246 -0.03060831107315253 0.024926464461011627 -0.007047995903599659 0.03319172517195311 -0.11705125456549423 -0.04755453487483506 0.035787180977593785 -0.07909547642294729 0.014985646937242105 -0.015623816994538785 -0.02022388752252438 0.01210549709665859 -0.031138646333481203 -0.024058898678776128 0.016969977245829677 0.12605579587814048 -0.03338572669509174 0.04786691769921583 0.04873722045613168 0.013483375197170666 -0.02916632020014379 0.03608277920674898 -0.030333120998240978 0.03873585063620631 -0.0006788319753860012 -0.056751032567914944 0.07702758033861139 -0.012942961318067533 -0.11025907782874363 0.10283464743606793 -0.022822418664707102 0.07446620021644997 -0.05636188054325852 -0.014334964783376626 -0.03153306621818293 -0.03390072398083871 -0.0006357303225587168 -0.07272446141370292 0.1389474269015718 -0.019777961342077974 0.03196985887876409 -0.01063736654564215 0.13995458173312317 -0.048659208817057965 8.137750712396794e-05 0.025809136225545568 -0.017774471708258074 0.0031241675323207658 0.0036917800921523226 0.02794891623661222 0.01448498245897191 0.11204810584731334 0.08765044399957048 0.040372461958903975 -0.034594077381650656 0.14146746802996982 0.0333747360565602 0.025208568058939763 0.0017752023309007884 -0.14289830433818404 -0.01847176226023524 -0.005428356729927967 0.01921188212610726 0.00457827964917925 -0.048169328196495054 -0.120540311319829 0.011656382790295367 0.09296916500384722 0.11260734042748331 0.0724822519411527 0.021714581106046228 -0.07645868795343025 0.1030105534032683 0.0040179636874948105 0.01618117575285613 0.02580485082100949 -0.07024748478352279 -0.01799810914266917 0.009428490377127624 -0.030649119139587826 0.040044220246425316 0.021818404719273824 0.03293945956485446 0.0605255407396594 0.05283773775185403 -0.040641781949574414 -0.05348993878076007 0.06171807142200641 -0.0523440933489709 0.016969874495534 -0.011027774086309061 -0.004427413295075829 -0.006744827028204018 0.04701844578021627 0.06477148613832583 0.025192370890607135 -0.015565068007583375 -0.05381415404767146 0.07997777528754493 0.13818924296066837 -0.07705305144300892 0.04226877975329192 0.05054604287605289 -0.012819927150330989 0.021340704870157032 0.02059499579811929 -0.01833060461330296 -0.008393319030916271 -0.046791879103955145 0.06238668983197588 -0.05561579288520837 -0.13679376725408002 0.03715525628365026 -0.0920153509354561 0.058487574692420795 0.009230885433757111 0.04508923304977107 0.06248818296812837 -0.032412377138535176 -0.04212398753597556 -0.01110356445991845 0.012145726037720716 0.04846241665626284 -0.008471409391611633 -0.03176887654254065 0.07705641378089105 0.09031169887147639 -0.020627681031944626
messi  -0.021600312524298417 -0.07441077292802321 -0.038872904974211295 -0.018913063144967764 0.03240952120312127 -0.017486353271628185 -0.07887289446838942 -0.008034742705854511 -0.048826043225922586 -0.0716306583696055 0.017749349166024556 0.021404671401904215 0.06228002522439397 0.019208793001000115 0.008490666012902711 0.13528137238379084 0.07374796617504435 -0.020719052231200154 -0.007139030989031401 -0.0031800014838964555 0.02082914591957249 -0.013709028168787624 -0.018981777063950687 -0.0144500998313096 -0.008626914859982081 -0.08622903634269728 0.05205502580722493 -0.07594255200904067 0.046699965685812396 -0.046774194096594356 -0.054117556476084704 -0.020339333087438762 0.01087375328876897 0.06129341468272875 -0.03496963004694679 0.006303810340497225 0.031651778524317935 -0.044238720257678575 -0.03657253204737723 0.04408841143073504 -0.029311118794739213 -0.055500629116737706 0.009952278542844003 0.026297941372787566 0.09017861161889397 0.014907550507339953 -0.14412697566453836 -0.03892128901853285 0.013762447334350088 -0.059460669546375466 0.01262293112390941 -0.0038595280144157872 0.12970783220328722 -0.036916779608996884 0.01741552891759236 -0.04173811731138122 -0.029223414834028433 -0.02776017056781675 -0.0825079729200912 -0.003541535305086295 -0.015375387953614742 -0.04868014071435758 0.01908777337215323 -0.006694601804074228 -0.008735718835085698 0.04639855512308372 -0.0130448189722108 0.061258694459874974 0.07446442134011588 -0.09020004108460435 -0.008318050116247621 -0.06108945005995986 0.061427003071429495 -0.011114243879165892 0.06895419499104295 -0.07113840666974422 0.005265414083403236 -0.02587165208117031 -0.03838479850194729 -0.05628906855468821 0.006797248394013543 0.03360386693852974 -0.011560925332716692 0.20007107296729262 0.04912332460446896 -0.09978917180717194 -0.043504203589039205 0.06011843088471399 -0.06644853567851264 -0.0914303741126351 -0.0620726077357522 -0.04574422102370737 -0.08864263182973443 -0.01636335085179933 0.0960869757572131 0.11832586843604793 -0.03876221929414257 -0.11399538034058078 0.025231241253466957 -0.03356641750164214 0.05380687324386135 0.014549570568496295 -0.013056990227358314 -0.058447655543252514 -0.053686834123336545 -0.1430587588563755 -0.05609873457700235 0.05038172900886519 -0.0004239865838401556 0.10704372728479476 0.027192029514726327 0.0016488080280811798 -0.02760962467370476 0.027154667895624478 0.08035542273281995 -0.009831384308944993 -0.0275167044708419 -0.012089222849174222 0.06173942749241649 0.04463872579355572 0.008557641642198695 0.023371496250314292 -0.0028593517375148057 0.05736495963943721 0.08336847922338589 -0.08193152592261396 0.06737788738705185 -0.07466247991252596 0.01730990958755733 0.0112509197140346 -0.018614744537411496 -0.01980612514902865 0.004083284571123983 -0.006438903588670338 -0.04423434880235526 -0.05040473667726858 0.014556278416652722 0.020571291454852692 0.030331565867126084 -0.03959451331607855 0.005377965979836308 -0.06073470789618954 0.06143127495218926 0.0693516857147211 -0.0628527879393822 0.13837548908297054 -0.16167948020567038 -0.03203167172392645 -0.000977039501076811 0.06636424511430511 -0.02687701769494247 -0.014225473307485664 0.13164801340894955 -0.017655152696218625 -0.03980149333681192 -0.016490733057285538 0.012662096102713644 -0.0007785503841496676 0.049894844755170004 -0.0601845253856609 0.07210556358660129 0.00041247759613711256 -0.08414930376513935 -0.0007881341997269909 0.07954295239339146 -0.024332316722605652 -0.041612455500758545 0.03703454226386272 0.0007385598163133233 0.0039347074003399 -0.03319633127065912 0.03881125806177613 0.005098553116440057 0.02956296003519341 -0.03574904760139274 0.035845677624417094 -0.09194157609679685 -0.02170115133462622 0.016255799011779683 -0.09332489852509139 0.028618327539630988 -0.046112134452781596 -0.07615973910150783 -0.008565376079856137 -0.016447125406172308 0.0019655741018031803 0.02448515702340361 0.214748865390104 -0.011344928606685446 0.06919584095327012 0.07618711277592934 -0.0034665134511656782 -0.09092322143600934 0.0476383166744459 -0.050493118353437574 0.025394449933753522 -0.10240212507675268 -0.01388768034087659 0.009557522528992793 0.02076131568184626 -0.12370195870044588 0.17012716294428865 -0.006002280021824579 0.049513305938201434 -0.07081103106856658 -0.031208606857343626 -0.029892094005613674 -0.054811810803428306 -0.05643097832550502 -0.059364027444793126 0.11541361746863071 -0.0060901818814099165 0.0027127920464702394 -0.020630795248157262 0.026095862095680572 -0.06797614280963682 -0.08459291730568304 0.07087277841502639 -0.030831559064190852 -0.04738218370956502 -0.011665557180790133 0.06662602313180817 -0.029894012637468766 0.08047290791313114 -0.013796475486771242 0.03558569037193314 -0.034614851478163365 0.12735465579267205 0.0052491926941553085 0.07931899145508167 0.057092293510946523 -0.14785123125875058 -0.06470360733439207 -0.010671908635666008 0.03508483285997552 -0.03744927710216408 -0.04452589114515263 -0.051558279494230155 -0.005311217660087311 -0.025769516242573693 0.11649518035017818 -0.02277285173196145 0.021414985163966737 -0.08033323608921492 0.11646305501081068 0.03429991521955233 0.04211162862619059 0.0066930284553670715 -0.035950914848269754 -0.0603487211410238 0.012773109712171006 -0.005217444691858129 0.07651903327902232 0.011165011035795269 0.025507691466936027 0.0458515121878482 0.09474615388336839 -0.03993251758882543 -0.06246451949246162 -0.01297282771958148 -0.06369317348800413 0.06489467229705269 0.004088703623324607 -0.01502569767058601 -0.026006453680285847 0.043343458185349536 0.009408708954840623 0.03191717756091679 -0.008126024825841289 -0.041894487106337724 0.07107985899639137 0.07407783144982326 -0.07713506421300981 0.057634663983611265 0.028478920675243113 0.015093700514348067 0.02865490102190173 -0.05270459383201099 0.04830252006144515 -0.01819903402337753 0.0060631828016352906 0.10614126464267079 -0.0011490763014056493 -0.12701062953229397 -0.003960458476644762 -0.06455534254483707 0.07595485930516639 -0.017877619604731432 0.026929804486874185 -0.027442899959880685 -0.043898944291487184 -0.010564149939404759 -0.040531237152892426 0.029951296374993806 0.06040458479124605 -0.03920457959589288 -0.00023961513462683931 0.024244942210015653 0.09911629107658357 -0.051675602539094846
darth vader 0.044494383185768545 0.07631920521178086 -0.027936261325458525 0.04273014884519455 -0.038321003451356764 -0.0422259083852394 0.03616389852810653 -0.12182056221520951 -0.03382440067416511 0.04301627698490524 0.027555953011774884 0.05204301905747556 -0.06527645862615974 -0.0335788739381301 -0.006514548774809234 0.051592141902118444 -0.004306301228847163 0.0034219452127600735 0.002888114082717019 -0.006368887853406422 -0.042167590693000176 -0.051712208715705206 0.03283406743644377 0.08582239826638406 0.06991799564001956 0.025570577984689646 -0.031085294616611192 -0.07679827746648521 0.032952787007971156 -0.003138387696784603 -0.020141486914054544 -0.009986433469393536 -0.030041109487040904 0.1140098458611842 -0.02381358056872234 -0.05687894925573075 0.006766792972746558 -0.025607466015557138 0.014297209246408397 -0.05573697162565527 -0.09003196869409681 0.051406616734478605 -0.005875274805742942 -0.025555160471738003 -0.010797722575957989 0.039159096182776715 0.03414605393334814 -0.04798160165868078 0.02240320733451947 0.045177640615061604 0.024231046164858 -0.10281903075669246 -0.016422083617717395 -0.10345534093525417 -0.038334000199912455 0.04773821217494242 0.01998973288182062 -0.10053074045695962 -0.10176616738600373 -0.004803378369675382 0.005348566074324585 0.015602322328367849 0.07385638932077535 0.003977849628143981 -0.08333691649925135 0.007472449555973454 -0.056450816406560335 -0.050677690394231076 0.04143030769405933 0.030237071896097825 0.038929780450751336 0.04281716827251717 0.07035777430728885 0.0035205503108105885 -0.07238363675273865 -0.04079358562569488 0.03590151199185282 -0.18822483747906266 0.04909943612352633 -0.061859564881132686 0.018924901965502446 0.008814677021756723 0.05748980757853801 0.03247600448045484 0.04641816486964484 -0.0435376056278972 -0.057882905668234855 0.02593219906584001 0.035771890170345835 0.010973734179936977 0.02698836599336157 -0.0425063022752966 0.014218708114750924 -0.13618006622017867 -0.014056739200927537 0.11051076871028506 0.01093999400265286 0.02837648952003485 0.019282753342729463 0.02472290917930218 -0.03611718320713475 -0.11990005171928528 0.01046865682198811 -0.023753683484596524 -0.15495059292342594 -0.1847633858575628 -0.02329928026960585 -0.05489867045091008 -0.09221560713932016 0.12230906014619945 -0.06808931410215026 0.04100690600487959 0.12793961921559963 -0.013233908604138256 0.018366515775671177 0.005589862131172212 -0.03975941683524715 -0.0554557442587149 0.05445274279671767 0.007590098277766374 -0.037262047191085 0.055598589490811354 0.0314345292010703 0.0582995732922227 -0.024766590417871465 0.0183730381264915 0.021640281530800658 -0.0764182314660746 -0.00883043752321954 0.1340383161521316 -0.05293362714112883 0.03405294790005423 -0.028099644356599774 -0.010073606156433577 -0.004331619655581982 -0.0050603493266022205 -0.008353893155291468 0.029645220101764142 0.01606913569372567 -0.08772271238194101 -0.04354119195558622 -0.004653789745388881 -0.0033861746840821577 -0.056505292685758955 0.016394684415733086 -0.040989876923881854 0.07066911654693114 -0.028004085299049637 -0.03904317363547696 0.016857219407025656 -0.053724212439878224 0.06666900213949806 -0.13839649334367934 -0.04691316498533634 0.007159760941453331 0.08158296652561468 0.07152612264916253 -0.002863479486616478 0.07695214887117123 0.011485075959570601 -0.01835424642317961 -0.031057988938680697 -0.05074478804871084 -0.012581590479156371 -0.06037696478769494 0.06351639265600818 -0.049061771747288825 -0.1258084090955579 0.05149042947105932 -0.01910076237304706 0.025642873536368557 -0.022211060057375137 -0.10773436267985578 0.017606702800295998 -0.009615221311705687 -0.029985898087639226 -0.01761567077045508 0.012129090471860202 0.009487289345999865 -0.01160543078905013 0.011788237969998706 -0.048999123160868276 -0.055877530825640453 0.04726501192458928 -0.04033334550267389 -0.007898259834948752 0.023428731232619564 0.11760431679636332 -0.0855961109928146 -0.052617142015898635 0.013352847970721594 0.08015393789247158 -0.17231605279421777 0.10019917310705237 0.011668690113451613 -0.010490520298682984 -0.110853101687125 -0.09232808407384625 0.015469261413097174 0.04739619547692556 -0.05629895999049518 0.10400418522245708 -0.038745002868271906 0.07818680159232672 -0.015591032937956027 0.04410928942883736 -0.09849764635394204 0.10008114454674333 0.005397291966014101 -0.10136590729743462 0.14156299704998745 0.024854165958966744 0.05584873371368314 -0.03775832384057193 0.11936234695859667 -0.035909850480408664 0.030032675167299766 -0.009918643384715282 -0.0631190699977124 -0.0579703920350255 0.06528705737379446 0.05889861414320364 -0.03201851601018401 0.08992964140203595 0.03259059979861057 -0.0041155533690256305 0.004581140226743042 0.10870438935335892 -0.01936250315059443 -0.0643225832143552 -0.06805185717642391 -0.08498716803890323 0.043917664538062 -0.01746975818010907 0.012684998110984972 0.023195912852358218 -0.0028686221845553176 -0.11969241713232688 -0.038103124110755414 0.008408473178282909 -0.007974865294905787 0.037644828943961324 -0.03640486308118844 -0.05125326994125529 0.0770578039500816 0.015526617393979555 0.042486329004436545 0.030868856601130045 -0.02590997124848845 -0.021732965146090383 -0.036426507220207224 -0.08772979664699458 -0.022307007827873964 0.06618980594738119 0.11418052174394007 -0.019756922902265453 -0.010043479858434175 -0.027319885281970123 0.010516746472080596 -0.014704758728550621 0.0040119370200049015 -0.03259011313665947 -0.041306054713731756 0.01882795224881113 0.03389091750047052 -0.005766026700973215 0.04000222107246644 0.0002865140411404678 -0.07828876564473564 -0.10094423956754373 -0.04057412372814682 0.1413140488212536 -0.12704275395327397 0.01071838758913146 0.09181692764521214 -0.08767754807352052 -0.03391965967350687 0.0028572238284021063 -0.02904489908754643 0.009854224626164448 -0.01940657199964884 -0.02366195619287118 0.026537252342176177 -0.042717283855294046 -0.021174778989083806 -0.042372079608384135 -0.030892688654322417 0.018275214610897917 0.008054739038921295 -0.009225242152576824 -0.01182786376337254 -0.02010236422479507 -0.01078784550131735 0.005201638710214819 -0.023813388408647305 -0.009415563177330838 0.07469826653679387 -0.07920051266823036 0.017380325303462785 -0.08847397592230945
pace -0.0498081 -0.0233826 -0.004164 0.0317106 -0.0291482 0.118995 -0.0555737 -0.1105068 0.0089687 0.0397184 -0.0959327 -0.0525307 0.037316 0.0152147 -0.0124921 0.0916085 0.1065029 0.077675 0.102499 -0.0898468 -0.0280271 -0.0344333 -0.064222 0.0826398 -0.0768743 -0.0014414 0.0124921 0.0254646 -0.0602182 0.0091288 -0.0056054 0.0606986 -0.0067265 -0.0895265 -0.0768743 -0.0104101 0.1098661 0.0703079 0.0065663 -0.0727102 -0.0530112 -0.1329284 -0.026906 -0.0302692 0.0254646 -0.069347 0.0033632 0.0078476 -0.0586166 0.0185779 0.0506089 -0.0172967 -0.022742 0.0393981 -0.1249207 0.0536518 0.0288278 -0.0398785 -0.0414801 -0.0019219 0.0483667 0.037316 0.1093857 -0.0001602 0.0860031 -0.0337926 0.021781 -0.0560542 -0.0523706 -0.0908077 -0.0120116 -0.0454839 0.026906 0.0059257 -0.0035234 -0.03107 -0.09321 -0.0070468 -0.0582963 -0.040359 -0.0627806 -0.1028193 -0.0265857 0.0661439 0.1000967 -0.0578159 0.0477261 -0.0001602 0.063101 0.0297888 0.0852023 -0.0355543 -0.1276433 0.006246 0.0068867 0.0344333 -0.060058 -0.0350739 0.0573354 -0.0086484 -0.0203396 -0.0837609 -0.0044843 -0.0065663 -0.0299489 -0.035234 0.0523706 -0.1213973 0.0459644 -0.0112108 -0.0578159 0.1031396 0.0573354 0.0808781 -0.0485269 -0.0153749 -0.0025625 0.019699 -0.0381168 0.0099296 0.0323513 0.0451636 0.0147342 0.0629408 0.0448433 0.0493277 -0.0129725 -0.1766507 -0.0073671 0.0560542 0.0273865 -0.0675853 0.0791164 0.0336325 -0.0152147 -0.0882452 0.021781 0.0611791 0.0184178 -0.0008008 0.0086484 -0.0749524 0.0639017 -0.1077841 0.0107304 0.0256248 0.050769 0.0016015 0.0142538 0.0009609 -0.0025625 0.0483667 0.0027226 -0.046605 0.1282839 0.0954522 0.0184178 0.0025625 0.0493277 0.0144139 0.069347 0.057976 -0.0951319 0.0653431 -0.015535 -0.0067265 -0.0946514 -0.0679056 0.0166561 -0.0208201 -0.0243435 0.0132928 0.0432418 0.0140936 0.0467652 0.0490073 -0.1499048 0.0674251 -0.0397184 0.0142538 0.0414801 0.002082 -0.0715892 -0.008328 -0.0312302 -0.0733509 0.0408395 0.1140302 -0.0821594 -0.0347536 0.0022422 0.0124921 0.0353942 -0.1015381 0.0408395 0.0988155 -0.0180975 -0.0108905 0.0828 0.028988 -0.1699242 0.0342731 0.0328317 -0.0126522 -0.0413199 -0.0285075 -0.0152147 -0.0089687 0.0456441 0.0124921 0.0725501 -0.026906 0.0048046 0.0057656 0.0491675 -0.0355543 0.0089687 0.0158553 -0.0520503 0.0139335 -0.0120116 0.0703079 0.0727102 0.0832805 0.0520503 -0.0443629 -0.0140936 0.1194754 -0.0472456 -0.0474058 0.0172967 -0.1111474 -0.0917687 -0.064222 0.0844015 -0.0291482 0.0185779 -0.0019219 0.0430816 0.0762336 0.0655033 0.0669447 0.0104101 -0.0512495 -0.0924093 0.0243435 -0.0317106 -0.0614994 0.0510894 -0.0060859 0.0852023 -0.1446197 0.007207 -0.0049648 0.0333122 0.078636 -0.0203396 0.0603783 -0.0179373 0.0320309 0.0451636 -0.0565346 0.0016015 -0.0722298 -0.0208201 0.0064062 0.0725501 0.0365153 0.0353942 0.034113 0.0544526 0.0898468 -0.122198 -0.0421207 0.1012178 -0.0675853 0.0949717 -0.0129725 0.0831203 -0.0317106 0.0866437 0.0096093 0.0943311 -0.038277 0.0369957 -0.0281872 0.0674251 0.0350739 -0.0006406 0.0262654 0.0864835 -0.0480464 -0.0193787 -0.0067265 0.0267458 0.0401988 0.0150545 -0.0169764 0.0401988 -0.0659837
Tao -0.0315898 -0.0603079 -0.0405798 0.0360848 0.0846558 -0.0456991 -0.0325887 0.0012486 0.0118618 0.0518173 0.0117369 0.0056187 -0.0184794 -0.0292175 -0.0191037 -0.1151219 0.0460737 0.013485 0.005369 0.0024972 0.0161071 0.0747918 0.0109878 0.0402052 -0.021601 -0.009864 0.0062431 0.0429522 0.0649277 -0.0202275 0.0191037 -0.03596 -0.0011237 0.1424664 -0.0433268 -0.0600582 0.0191037 -0.1178688 0.009864 0.0161071 0.046698 0.0804105 -0.065552 -0.0239733 0.0121115 0.0062431 -0.0109878 -0.079037 -0.0041204 -0.0461986 0.0234739 -0.0433268 -0.0580604 0.0214761 0.0292175 -0.0052442 0.0372086 0.0113624 -0.0403301 -0.0240982 0.1314787 -0.0782879 -0.063804 0.0444505 -0.0249722 0.0409544 0.0814094 -0.0712956 -0.0785376 -0.0196032 -0.0112375 0.0021226 0.0102386 -0.0232241 -0.0037458 -0.084406 0.0340871 -0.0573112 0.0208518 -0.0524416 0.0093646 0.0148585 -0.0113624 -0.1110014 -0.0384572 -0.0579355 0.0595587 0.0586847 0.0258462 0.0694227 0.0003746 -0.073668 -0.0755409 -0.0374583 -0.0363346 0.1630685 0.0998888 -0.0277191 0.0103635 0.0474472 0.0114872 -0.0024972 0.0488207 -0.0073668 -0.070047 -0.1806739 -0.0247225 -0.0428273 0.012611 -0.1243616 -0.0635543 -0.0214761 0.0481964 -0.1346002 0.0485709 -0.0254716 -0.050319 0.0946447 0.146462 -0.0498195 0.018854 -0.0074917 -0.0384572 0.0443257 -0.0424527 -0.0029967 0.0340871 -0.009864 -0.046698 0.1387206 0.0203523 -0.012611 0.0454494 -0.0694227 -0.0088651 -0.0360848 0.0626802 0.0499444 -0.0082408 -0.0191037 0.0903994 -0.0648029 0.023349 0.0078662 -0.0546891 -0.0882767 -0.0208518 -0.0554383 -0.0299666 -0.0292175 -0.0093646 -0.0166065 -0.0983905 0.0116121 -0.0092397 -0.0007492 -0.0319644 -0.0063679 -0.0061182 0.0465732 0.0168562 0.0137347 -0.0399555 -0.0641786 0.01798 0.0749166 -0.0409544 -0.0676747 -0.0573112 0.0469477 0.0438262 -0.0149833 -0.0181048 0.1246113 -0.0166065 0.0595587 0.0749166 0.0664261 -0.0606825 -0.0109878 0.0177303 0.0438262 0.1754297 -0.0277191 0.022475 0.0360848 0.051193 0.2306183 -0.1131241 0.01798 0.0357103 0.051193 -0.082658 0.0330882 -0.0079911 0.0402052 0.0578107 0.0142342 0.03596 0.0082408 0.0003746 0.0981408 -0.0088651 0.0305909 0.1121252 0.0176054 0.0797862 0.072794 0.1655657 -0.0173557 0.1103771 -0.0088651 0.0153579 -0.0443257 0.0770392 -0.0282186 0.0262208 0.0861541 -0.0094894 0.1174942 0.052067 0.0083657 -0.0199778 0.0418284 0.0473223 0.1595724 -0.0666758 0.0810348 -0.0187292 0.0092397 -0.0430771 -0.0613068 -0.0310904 0.0468229 -0.0284683 0.0255965 -0.0870281 -0.0142342 0.088901 0.0057436 0.0299666 -0.0198529 0.0540648 0.0850304 0.1307295 0.0139844 -0.0920226 0.0496947 0.0169811 0.0007492 0.0681741 -0.0183546 -0.0139844 0.0012486 0.0196032 -0.0211015 0.0196032 0.0382075 -0.0166065 0.0249722 -0.0373334 0.0046199 0.0451997 0.0011237 -0.0109878 0.010738 0.0199778 0.0258462 0.0268451 0.0208518 0.017106 0.0600582 -0.0876524 0.0444505 0.0390815 -0.0596836 0.03596 0.0243479 -0.0202275 0.0774138 -0.041329 -0.0685487 0.0506936 -0.0394561 0.0212264 -0.054814 -0.1281074 0.0101137 -0.0722945 0.0300915 -0.0394561 -0.0752912 0.0248473 -0.091648 0.0574361 -0.0106132 0.0558129 0.0619311 -0.1028855 0.0284683
melanie -0.0220549 -0.0643569 -0.0607414 0.04881 0.0310938 0.0498947 0.1283523 -0.0961739 0.039048 -0.0256705 0.0235011 -0.0307323 0.0021693 -0.0401327 -0.0061465 -0.0509794 0.132691 -0.0419405 0.0177162 0.0086773 -0.04881 -0.0263936 -0.0629107 0.0408558 0.0701418 -0.0224165 0.0188009 0.0979816 0.042302 -0.0947276 0.0697803 -0.0202471 0.0083158 -0.0072311 -0.135945 -0.0010847 0.0039771 -0.067611 0.0054233 -0.0173547 -0.0715881 -0.2375422 -0.0253089 -0.1030434 0.0632723 0.0267551 0.0332631 -0.0086773 -0.0144622 0.0318169 0.0050618 -0.0502563 0.087135 -0.009762 -0.1410068 -0.022778 -0.0094005 -0.0115698 -0.0730343 0.0672494 -0.0433867 0.0137391 0.1167826 -0.0509794 -0.0021693 -0.0224165 -0.0882196 0.0083158 -0.0231396 -0.0437483 -0.0307323 -0.0379634 0.1019588 -0.0578489 -0.0274782 0.0401327 0.0047002 -0.0896659 -0.0379634 -0.0310938 -0.04881 -0.0744805 0.0169931 0.1117208 -0.013016 0.0133776 -0.029286 0.0755652 -0.0177162 0.0249474 -0.0470023 -0.0271167 -0.1243752 -0.1225674 0.1178672 0.0578489 0.0343478 0.0115698 0.0021693 -0.0864119 -0.0018078 0.0636338 0.0383249 -0.045556 -0.0003616 -0.1995789 -0.0180778 -0.042302 0.0166316 0.0509794 0.0 0.0506178 0.0354325 -0.0126545 -0.0433867 0.0166316 -0.0477254 -0.0777345 0.0614645 0.0133776 -0.0780961 0.0412174 -0.0267551 -0.0538718 0.1135285 0.0025309 0.009762 0.0672494 -0.0639954 0.0209702 -0.006508 -0.0513409 -0.0007231 -0.0412174 -0.0643569 -0.0213318 0.0809885 0.0502563 -0.0831579 -0.0144622 -0.0242242 -0.0028924 0.0108467 -0.0061465 -0.0538718 0.0141007 -0.0419405 -0.0332631 -0.0643569 -0.0213318 -0.0350709 -0.1377528 0.0730343 0.0549565 -0.0028924 -0.0329016 -0.013016 0.0310938 -0.0112082 -0.0137391 0.0730343 0.0415789 -0.0470023 0.0643569 -0.0408558 0.0003616 -0.045556 0.0329016 -0.0480869 0.0853272 -0.026032 0.0054233 -0.0018078 -0.0285629 0.0394096 0.1149748 0.0112082 0.0180778 0.0206087 -0.0893043 0.0119313 0.013016 -0.0762883 0.0047002 -0.042302 -0.1782471 -0.0668878 0.1193134 0.0126545 0.0748421 0.0347094 -0.0206087 -0.0491716 0.0719496 -0.0177162 0.0379634 0.0122929 -0.0343478 0.0075927 0.0404943 -0.1453455 0.0231396 0.0256705 -0.0437483 0.0607414 0.0155469 -0.0296476 -0.013016 -0.0007231 -0.1713775 0.0336247 0.067611 -0.0036156 0.0448329 0.0592952 -0.0148238 0.0028924 0.0441098 -0.0614645 0.022778 -0.0151853 0.0321785 -0.0263936 0.1106361 0.0122929 0.0864119 0.0592952 0.1232906 0.0271167 0.0303707 0.0271167 -0.1815011 -0.0343478 0.0061465 0.0332631 -0.0567643 0.0686956 -0.04881 -0.0003616 -0.01627 0.0795423 -0.0564027 0.0545949 -0.0347094 -0.0133776 0.0386865 0.0339863 0.0119313 0.009762 0.0379634 0.0296476 -0.0560412 -0.083881 -0.0079542 0.1073821 -0.0198856 -0.0766498 0.0300091 0.0791807 -0.042302 0.0112082 0.0115698 0.006508 -0.0090389 -0.0137391 -0.052064 -0.0180778 0.0144622 -0.0054233 -0.0661647 -0.0188009 0.0788192 -0.0386865 -0.0122929 0.0086773 -0.029286 -0.0506178 -0.0119313 -0.0361556 0.0104851 0.0817116 -0.0007231 0.0119313 -0.0278398 -0.083881 -0.0028924 0.0242242 0.1149748 -0.0426636 -0.0498947 0.0079542 -0.0531487 -0.1012356 -0.0086773 -0.0419405 -0.0372403 0.0296476 0.077373 -0.0010847 0.0180778
